%YAML:1.0
---
opencv_ml_svm:
   format: 3
   svmType: C_SVC
   kernel:
      type: LINEAR
   C: 1.
   term_criteria: { epsilon:1.1920928955078125e-07, iterations:1000 }
   var_count: 12288
   class_count: 2
   class_labels: !!opencv-matrix
      rows: 2
      cols: 1
      dt: i
      data: [ 0, 1 ]
   sv_total: 1
   support_vectors:
      - [ 2.34501967e-05, 1.91718427e-05, 1.71771007e-05, 2.28537774e-05,
          1.92644347e-05, 1.58922921e-05, 2.8736531e-05, 2.56786116e-05,
          2.1339798e-05, 2.42760325e-05, 2.06125333e-05, 1.72510972e-05,
          2.49711593e-05, 1.94820386e-05, 1.65565325e-05, 2.8104394e-05,
          2.41077923e-05, 2.01066141e-05, 1.33079211e-05, 9.6902686e-06,
          5.30274701e-06, 2.92639379e-05, 2.36616834e-05, 1.77946877e-05,
          3.91270551e-05, 3.55983975e-05, 3.12014308e-05, 3.07242517e-05,
          2.69114735e-05, 2.18853475e-05, 1.96948258e-05, 1.63754703e-05,
          1.2764227e-05, 1.02468757e-05, 6.24429595e-06, 1.01306807e-06,
          2.40417785e-06, -1.17486388e-06, -4.60868478e-06,
          -1.08805887e-09, -3.86092188e-06, -8.55812505e-06,
          6.90124864e-07, -2.66877646e-06, -6.21289519e-06,
          5.65849101e-09, -2.81857842e-06, -7.64285505e-06,
          4.51799542e-06, 2.55534388e-07, -7.18669844e-06,
          1.11382597e-05, 4.89671356e-06, -1.2927602e-06, 9.00496161e-06,
          5.81402492e-06, 8.48521154e-07, 8.53602046e-07,
          -2.05400693e-06, -6.80576932e-06, 1.25779172e-06,
          -2.42633314e-06, -5.15389456e-06, 6.42407088e-08,
          -1.57149327e-06, -5.7562479e-06, 8.51027562e-06,
          4.22965377e-06, 6.27466818e-07, 2.05846518e-05, 1.64903377e-05,
          1.10129922e-05, 2.22587842e-05, 1.91457602e-05, 1.31962333e-05,
          3.34332472e-05, 2.71428307e-05, 2.2454351e-05, 3.23017703e-05,
          2.58165928e-05, 2.14996508e-05, 2.92151872e-05, 2.40125373e-05,
          1.83996053e-05, 3.03136894e-05, 2.1380165e-05, 1.53802757e-05,
          1.92344269e-05, 1.44989426e-05, 7.7612076e-06, 1.23653554e-05,
          5.39210168e-06, -4.96408632e-07, -4.14222399e-07,
          -6.0826078e-06, -7.78336562e-06, -9.9977824e-06,
          -9.8886976e-06, -1.45907516e-05, -9.04703393e-06,
          -1.02997392e-05, -1.4675632e-05, -8.04282081e-06,
          -1.14019176e-05, -1.44314008e-05, -1.22946203e-05,
          -1.60290583e-05, -1.93145497e-05, -1.39349313e-05,
          -1.41333949e-05, -1.52754619e-05, -1.85096142e-05,
          -1.83979682e-05, -1.88178492e-05, -1.55755151e-05,
          -1.66959544e-05, -1.96892161e-05, -1.10773644e-05,
          -1.36133376e-05, -1.42620738e-05, -9.44176645e-06,
          -1.32340438e-05, -1.59572101e-05, -2.3107234e-06,
          -6.45268074e-06, -1.25203351e-05, -4.36435812e-06,
          -8.60503496e-06, -1.36438275e-05, -2.17015963e-06,
          -6.65241305e-06, -9.15916371e-06, 2.92731283e-06,
          -1.53546796e-06, -7.68414975e-06, 5.08713492e-06,
          -4.50676367e-08, -3.38196469e-06, -1.6431992e-06,
          -5.89480169e-06, -1.17020645e-05, -3.40689462e-06,
          -9.03745786e-06, -1.32331324e-05, -6.5094614e-06,
          -9.53857398e-06, -1.08045251e-05, 4.63747853e-07,
          -4.31135641e-06, -9.58555484e-06, 2.54534871e-06,
          -2.52646578e-06, -6.41392489e-06, 4.21007417e-06,
          -2.55274063e-06, -7.58677652e-06, 5.2845171e-06,
          -1.93809615e-06, -6.31463854e-06, 1.2363731e-05,
          5.62450896e-06, 7.49857236e-07, 1.35796745e-05, 5.50409959e-06,
          2.95131287e-07, 1.45894537e-05, 7.04371996e-06, 1.26457246e-06,
          1.75687819e-05, 1.00217412e-05, 3.59747378e-06, 2.09427726e-05,
          1.3453151e-05, 8.01438455e-06, 1.64269059e-05, 1.1480889e-05,
          9.47021999e-06, 1.65697038e-05, 8.63691639e-06, 3.19294804e-06,
          1.58676849e-05, 8.55577946e-06, 3.59003252e-06, 1.3370518e-05,
          7.31191585e-06, 3.54056488e-06, 1.37590496e-05, 7.7809982e-06,
          3.93622486e-06, 1.50799697e-05, 6.00907379e-06, 9.18872047e-07,
          2.59888711e-05, 2.00233098e-05, 1.74193938e-05, 2.23802472e-05,
          1.87611313e-05, 1.60120726e-05, 2.43665418e-05, 2.10017315e-05,
          1.74775996e-05, 2.69936827e-05, 2.12231116e-05, 1.81146333e-05,
          2.22247563e-05, 1.76978592e-05, 1.50879214e-05, 1.24833095e-05,
          9.06122477e-06, 5.95144229e-06, 2.68038057e-05, 2.15900818e-05,
          1.75599525e-05, 4.07108091e-05, 3.33553289e-05, 2.79463893e-05,
          3.91185604e-05, 3.49587499e-05, 2.96181552e-05, 2.54287133e-05,
          2.3454535e-05, 2.04032203e-05, 1.67880135e-05, 1.37341858e-05,
          1.32503164e-05, 8.53410529e-06, 4.20886863e-06, 2.4941628e-06,
          1.54558472e-06, -2.50686708e-06, -5.72653198e-06,
          -9.129094e-06, -1.02941713e-05, -1.19383012e-05,
          -8.09118501e-06, -1.06701991e-05, -1.08009017e-05,
          -4.6653754e-06, -7.29160047e-06, -1.25919987e-05,
          2.32260686e-06, -3.5348969e-06, -1.03764787e-05,
          9.09957544e-06, 2.81095254e-06, -2.09753262e-06,
          1.11629597e-05, 7.12613109e-06, 3.45266358e-06,
          -1.29735793e-06, -4.66558595e-06, -8.26695123e-06,
          -2.90754269e-06, -5.72341969e-06, -9.33759202e-06,
          -2.14671013e-06, -6.50432776e-06, -1.07842234e-05,
          4.68165263e-06, 2.91825017e-06, -9.35091649e-08,
          1.95502853e-05, 1.45753165e-05, 9.79889955e-06, 2.48898141e-05,
          1.97078461e-05, 1.50220685e-05, 2.62902213e-05, 2.23438656e-05,
          1.80019651e-05, 2.91885517e-05, 2.57924567e-05, 2.00081322e-05,
          3.32283744e-05, 2.61367222e-05, 2.20999154e-05, 2.66500338e-05,
          2.12593404e-05, 1.49866682e-05, 1.85723311e-05, 1.42727322e-05,
          7.51314474e-06, -2.00506679e-06, -5.57831436e-06,
          -1.0001454e-05, -6.30229079e-06, -1.04028632e-05,
          -1.37122815e-05, -6.96927691e-06, -1.09110752e-05,
          -1.40677394e-05, -5.35642357e-06, -6.44069814e-06,
          -9.15746205e-06, 2.66518896e-06, -2.01997454e-06,
          -4.34312278e-06, -7.30559486e-06, -1.13244332e-05,
          -1.45451786e-05, -9.07789035e-06, -1.40324228e-05,
          -1.54297995e-05, -1.5081815e-05, -1.96021374e-05,
          -2.06639597e-05, -1.28747461e-05, -1.534287e-05,
          -1.84469791e-05, -8.12153667e-06, -1.25798551e-05,
          -1.32614932e-05, -6.03316857e-06, -1.08833474e-05,
          -1.15854427e-05, 2.26997963e-06, -3.27458702e-06,
          -8.1260132e-06, 2.53128565e-06, -2.37987842e-06,
          -7.63218395e-06, 3.03783031e-06, -4.17010824e-06,
          -9.03391356e-06, 9.31859006e-07, -2.68326789e-06,
          -8.91933269e-06, 1.29227703e-06, -4.60729234e-06,
          -8.04615956e-06, -2.45711703e-06, -6.50704715e-06,
          -1.25053975e-05, -4.6177247e-06, -9.68959375e-06,
          -1.44241285e-05, -5.46737374e-06, -9.80009827e-06,
          -1.37516163e-05, -1.53901556e-06, -6.14046257e-06,
          -1.30217331e-05, 9.28144118e-07, -4.80857761e-06,
          -7.9971569e-06, 2.55931559e-06, -2.64344226e-06,
          -8.25177904e-06, 7.06648279e-06, -2.87296047e-07,
          -3.00743682e-06, 1.33453568e-05, 6.31920921e-06,
          -8.28981911e-07, 1.34682214e-05, 6.1898686e-06, 1.13787144e-06,
          1.54726804e-05, 7.05108596e-06, 5.01104296e-06, 1.62623055e-05,
          8.0751588e-06, 4.08612868e-06, 1.77000784e-05, 9.84910184e-06,
          5.14515978e-06, 2.06031636e-05, 1.23783166e-05, 8.42462032e-06,
          1.57587037e-05, 9.4042407e-06, 4.68726876e-06, 1.88842805e-05,
          1.23962627e-05, 5.18286652e-06, 1.43577827e-05, 9.99383519e-06,
          5.45824514e-06, 1.34535967e-05, 7.14285761e-06, 1.49636173e-06,
          1.63781915e-05, 9.91819161e-06, 5.90061472e-06, 2.0754811e-05,
          1.71485626e-05, 1.38569894e-05, 1.96956789e-05, 1.64814883e-05,
          1.28957317e-05, 2.28817589e-05, 1.78034661e-05, 1.50616552e-05,
          1.72191958e-05, 1.34659549e-05, 1.24789613e-05, 1.13413016e-05,
          6.64519348e-06, 4.02254864e-06, 1.73551834e-05, 1.22280226e-05,
          8.73380395e-06, 2.90794032e-05, 2.44898201e-05, 2.11253519e-05,
          3.44661275e-05, 3.07696027e-05, 2.6642796e-05, 2.54067199e-05,
          2.15559612e-05, 2.06576678e-05, 2.47772623e-05, 1.96080873e-05,
          1.58233652e-05, 1.22601341e-05, 8.38640335e-06, 4.79528899e-06,
          4.22031053e-06, 2.89158322e-07, -2.32470597e-06,
          -9.83385598e-06, -1.19988745e-05, -1.40788497e-05,
          -1.09655002e-05, -1.28871798e-05, -1.47744304e-05,
          -1.01455362e-05, -1.08348868e-05, -1.38695414e-05,
          -2.09156292e-06, -6.81057918e-06, -9.59055524e-06,
          2.94057281e-06, 1.45905142e-06, -2.60163574e-06,
          9.76450974e-06, 4.63237257e-06, -4.57494082e-07,
          1.06147318e-05, 6.49913045e-06, 6.09896506e-06,
          -8.30634292e-07, -3.62057244e-06, -6.22140487e-06,
          -7.42912334e-07, -3.74547267e-06, -6.16672241e-06,
          -3.5326641e-06, -7.19583977e-06, -9.82761321e-06,
          7.3102824e-06, 1.99556757e-06, 5.24616496e-07, -1.65341146e-06,
          -3.65469714e-06, -6.29334909e-06, 4.60388628e-06,
          2.32721322e-06, -1.62851518e-06, 1.48767549e-05,
          1.04757901e-05, 7.18069168e-06, 1.93859178e-05, 1.26831083e-05,
          9.68150835e-06, 1.85225763e-05, 1.32030791e-05, 8.18962144e-06,
          1.75957975e-05, 1.27055237e-05, 8.25595362e-06, 2.10824455e-05,
          1.6985703e-05, 1.23888058e-05, 2.2599213e-06, -1.80421739e-06,
          -3.20151435e-06, -1.68249744e-06, -5.73982788e-06,
          -8.89110743e-06, -3.64383664e-06, -5.35364916e-06,
          -7.07609206e-06, -3.11356689e-06, -5.13641271e-06,
          -8.25841926e-06, -8.00718965e-07, -4.54092969e-06,
          -7.28534542e-06, -3.28834471e-06, -6.45000546e-06,
          -7.59934619e-06, -3.09249185e-06, -6.49283811e-06,
          -1.05632143e-05, -8.24249946e-06, -1.06150565e-05,
          -1.26959048e-05, -9.19566446e-06, -1.30314429e-05,
          -1.46700022e-05, -9.28893132e-06, -1.41623723e-05,
          -1.42336066e-05, -9.39454912e-06, -1.28483625e-05,
          -1.26422328e-05, -1.08839986e-05, -1.29610453e-05,
          -1.41939581e-05, 4.14065471e-06, -1.5243329e-06,
          -3.06078459e-06, 6.20964602e-06, 2.56901944e-06,
          -5.61956722e-06, 3.81148175e-06, 1.30998302e-07,
          -4.34521189e-06, 1.91340951e-06, -4.1176645e-06,
          -9.0823296e-06, 2.02004202e-07, -7.64126889e-06,
          -1.26988189e-05, -4.96770053e-06, -1.13768483e-05,
          -1.42009039e-05, -1.98381372e-06, -5.53396876e-06,
          -1.09290286e-05, 3.0736594e-06, -3.51532253e-06,
          -7.35519234e-06, 2.5353138e-06, -2.08230608e-06,
          -7.0133583e-06, 2.28184217e-06, -5.86103351e-06,
          -1.00372654e-05, 8.21207414e-06, -1.24614348e-06,
          -5.49219567e-06, 1.39422664e-05, 6.69091742e-06,
          6.80870016e-07, 1.29318523e-05, 5.93515233e-06, 1.43860052e-06,
          1.19531796e-05, 5.7879106e-06, 2.6075727e-06, 1.65154324e-05,
          1.17336394e-05, 5.92499146e-06, 1.74334418e-05, 1.03116945e-05,
          6.74926605e-06, 1.59824976e-05, 7.933505e-06, 1.78927132e-06,
          1.61658973e-05, 8.47610409e-06, 4.21669074e-06, 1.46371876e-05,
          8.2325987e-06, 3.05095773e-06, 1.21920284e-05, 7.88292164e-06,
          3.78005484e-06, 1.2736381e-05, 5.14255044e-06, 5.47779962e-07,
          1.31580664e-05, 4.11138535e-06, -4.83405927e-07,
          1.39931772e-05, 9.51741913e-06, 6.24471932e-06, 1.64506928e-05,
          1.38366149e-05, 1.13982287e-05, 8.668997e-06, 8.07168817e-06,
          6.04779962e-06, 3.37511938e-06, 1.01682595e-07,
          -6.36824097e-07, 8.24185827e-06, 2.75209823e-06,
          7.77576929e-07, 1.34935744e-05, 9.29571706e-06, 4.89399872e-06,
          2.80007935e-05, 2.05705746e-05, 1.67804155e-05, 3.38058489e-05,
          2.95159407e-05, 2.74517261e-05, 2.64746723e-05, 2.43158611e-05,
          2.12480045e-05, 1.98299149e-05, 1.41446635e-05, 1.3939205e-05,
          7.43974806e-06, 5.60889839e-06, 2.99290946e-06, 3.85067915e-06,
          1.8365007e-06, -1.27375131e-06, -1.0116245e-05,
          -1.15148196e-05, -1.40896236e-05, -1.09417497e-05,
          -1.34923657e-05, -1.50980377e-05, -4.0961113e-06,
          -8.75791557e-06, -9.27474048e-06, 1.53393819e-06,
          -5.3573865e-07, -3.39198459e-06, -2.1854803e-06,
          -3.19217224e-06, -5.92673769e-06, 1.21755611e-05,
          6.18605554e-06, 6.36703305e-07, 1.68489896e-05, 1.28571301e-05,
          1.05485842e-05, 6.90768047e-06, 3.78592767e-06,
          -4.27147853e-07, 4.13429825e-06, 8.56669715e-07,
          -6.49267804e-07, -1.2807435e-06, -5.59927776e-06,
          -1.04589662e-05, 4.09273571e-06, 1.91110814e-07,
          -2.29887928e-06, -1.34676043e-06, -5.00118767e-06,
          -5.69541817e-06, 4.92151275e-06, 1.45407682e-06,
          -2.12898817e-06, 1.13480583e-05, 8.71326029e-06,
          5.17126909e-06, 1.35836726e-05, 1.01134319e-05, 7.39581765e-06,
          2.09977879e-05, 1.77900365e-05, 1.41007504e-05, 1.75128625e-05,
          1.39785889e-05, 8.90403771e-06, 1.45102067e-05, 1.17336767e-05,
          8.40990015e-06, 1.04680303e-05, 7.38149083e-06, 5.05744265e-06,
          4.04295997e-06, -3.46219622e-07, -2.31338709e-06,
          -1.13966962e-06, -2.87644616e-06, -5.27962629e-06,
          -4.48101582e-06, -6.64856725e-06, -8.97524387e-06,
          -2.31831405e-06, -4.23688743e-06, -5.40765859e-06,
          1.46511081e-06, -2.83389204e-06, -4.57153646e-06,
          -8.37894913e-06, -1.3069287e-05, -1.4605369e-05,
          -5.48795151e-06, -1.03613629e-05, -1.14645809e-05,
          -1.04289538e-05, -1.47712017e-05, -1.44545966e-05,
          -1.3098499e-05, -1.42858362e-05, -1.7333914e-05,
          -5.82157736e-06, -9.11842289e-06, -1.07833157e-05,
          -8.75698242e-06, -1.18401067e-05, -1.33902731e-05,
          -1.03167474e-06, -7.52994129e-06, -1.14320701e-05,
          -1.062053e-06, -5.30462921e-06, -1.01318428e-05,
          2.85250781e-06, -3.41194459e-06, -5.8720384e-06,
          2.37310906e-06, -2.40310828e-06, -6.00022895e-06,
          -4.31776152e-06, -1.07323531e-05, -1.45099948e-05,
          -7.49595392e-06, -1.16501315e-05, -1.74247871e-05,
          -8.69527582e-07, -6.90532443e-06, -1.18291709e-05,
          2.85571332e-07, -5.27168186e-06, -9.93740287e-06,
          4.16324428e-06, -3.29253908e-06, -6.35418019e-06,
          5.21228094e-06, -1.54672648e-06, -6.86729345e-06,
          5.91069011e-06, 2.55907935e-07, -5.19386595e-06,
          1.19448368e-05, 5.98147017e-06, 3.3038591e-06, 1.35679293e-05,
          6.48636524e-06, 1.88636932e-06, 1.13212391e-05, 5.66012159e-06,
          2.87132434e-06, 1.690721e-05, 8.36295658e-06, 4.06165009e-06,
          1.49062307e-05, 8.18248827e-06, 5.48498656e-06, 1.40499433e-05,
          7.45395664e-06, 3.58251123e-06, 1.43813786e-05, 6.34747948e-06,
          1.61997218e-06, 1.28401161e-05, 6.24458062e-06, 3.79322842e-06,
          1.41567307e-05, 8.33395279e-06, 5.01898694e-06, 9.89711225e-06,
          2.68948679e-06, -1.28956822e-06, 1.36461749e-05,
          5.29615954e-06, -1.02120703e-06, 7.76007801e-06,
          4.42086457e-06, 2.61750552e-06, 8.75588375e-06, 5.14085878e-06,
          4.42891996e-06, 7.14543012e-06, 3.26096256e-06, 3.24157952e-07,
          -7.47575484e-07, -3.9830702e-06, -5.00579563e-06,
          6.55964686e-06, 2.3091136e-06, -6.97812595e-07, 2.35695334e-05,
          1.77087368e-05, 1.30886265e-05, 3.49948896e-05, 2.89611016e-05,
          2.51498022e-05, 2.89232812e-05, 2.63411839e-05, 2.39835699e-05,
          2.40416884e-05, 2.02002921e-05, 1.89352668e-05, 1.45651466e-05,
          1.12913522e-05, 8.79498839e-06, 6.60349224e-06, 3.63612389e-06,
          2.10981352e-06, 6.40795633e-06, 2.72634907e-06, 3.86182506e-07,
          -1.06899543e-05, -1.23454229e-05, -1.49386242e-05,
          -6.51492428e-06, -8.81995038e-06, -9.3615954e-06,
          1.58167211e-07, -2.21771279e-06, -5.86729584e-06,
          2.97225461e-06, 7.42351403e-07, -1.48430854e-06,
          5.91154367e-06, 3.3823203e-06, 2.67851163e-07, 1.56126971e-05,
          1.21874355e-05, 6.4692349e-06, 2.26373504e-05, 1.77788952e-05,
          1.35425362e-05, 5.87007162e-06, 3.66952622e-06, 1.1576459e-06,
          2.34139657e-06, 1.02103638e-06, -4.98562429e-07,
          -1.02228228e-06, -4.30286491e-06, -5.91440357e-06,
          1.62880187e-05, 1.31280767e-05, 1.01837995e-05, 5.85618545e-06,
          6.80254175e-07, -1.31065019e-06, -8.68304426e-07,
          -5.12853285e-06, -6.82453492e-06, -2.08145616e-06,
          -3.05063077e-06, -2.27193664e-06, 1.10844639e-05,
          8.82578388e-06, 6.29186616e-06, 2.14451793e-05, 1.92603402e-05,
          1.6026479e-05, 1.31354718e-05, 9.22497202e-06, 3.8088458e-06,
          1.34406655e-05, 8.04241517e-06, 5.5228511e-06, 1.1489069e-05,
          8.16835291e-06, 4.88047954e-06, 9.83859081e-06, 4.6615678e-06,
          3.53766995e-06, 2.05219635e-06, -4.03576041e-06,
          -6.10816369e-06, -2.0880691e-06, -4.898719e-06,
          -6.74275134e-06, -7.88413615e-07, -6.00306657e-06,
          -7.92877472e-06, -5.11235567e-06, -9.706745e-06,
          -1.01186515e-05, 4.03896252e-07, -1.8718215e-06,
          -4.95461654e-06, -6.07781431e-06, -8.10172969e-06,
          -1.0772821e-05, -1.16435092e-06, -5.27890734e-06,
          -7.76193519e-06, -7.8525045e-06, -1.07832784e-05,
          -1.16994734e-05, -4.92721983e-06, -6.74273588e-06,
          -1.00927173e-05, -4.70428813e-06, -9.79235938e-06,
          -1.02990834e-05, -4.09622589e-06, -6.03121634e-06,
          -1.20237919e-05, 1.67622056e-06, -3.42138492e-06,
          -8.44814258e-06, 5.6294507e-06, 9.78749881e-07,
          -5.51788253e-06, 7.73485408e-06, 2.65235599e-06,
          -1.97056352e-06, 2.83484769e-06, -2.42034002e-06,
          -9.11201914e-06, -2.08431788e-06, -6.83807184e-06,
          -1.17266054e-05, -6.57581211e-07, -6.36142477e-06,
          -1.11936115e-05, 2.44593298e-06, -2.82352744e-06,
          -8.10372057e-06, 6.17395699e-06, -2.410251e-06, -4.4621147e-06,
          3.60823356e-06, -1.69468444e-06, -8.91481977e-06,
          9.64522405e-06, 1.74106276e-06, -2.01699299e-06,
          1.13670867e-05, 4.04108005e-06, -1.85841458e-07,
          1.19543129e-05, 2.68441454e-06, -2.88275669e-06,
          1.47923738e-05, 6.0292864e-06, 1.16889601e-06, 1.27586245e-05,
          6.44951342e-06, 2.71367611e-07, 9.47308581e-06, 3.76072308e-06,
          -1.8354782e-06, 1.22164147e-05, 5.0722615e-06, 4.90885554e-07,
          1.19724991e-05, 4.86797762e-06, 3.64164606e-07, 9.79401102e-06,
          4.3227501e-06, -4.40419939e-07, 1.19161441e-05, 6.39859854e-06,
          2.84885732e-06, 1.08936438e-05, 3.29476075e-06,
          -1.00300235e-06, 1.12364114e-05, 2.77601134e-06,
          -1.58336661e-06, 8.46734747e-06, 4.72209967e-06,
          2.98996997e-06, 7.11828216e-06, 4.62507978e-06, 2.52572522e-06,
          -4.82612222e-07, -3.21671314e-06, -5.73153875e-06,
          1.22946619e-06, -2.55694135e-06, -4.69705037e-06,
          8.79880554e-06, 4.78901075e-06, 2.07018866e-06, 2.0426618e-05,
          1.82232234e-05, 1.55677117e-05, 2.97285533e-05, 2.52804548e-05,
          2.3700366e-05, 2.57251322e-05, 2.26040374e-05, 2.01320836e-05,
          1.73710305e-05, 1.46680277e-05, 1.13490341e-05, 1.29797472e-05,
          1.01112728e-05, 8.66818391e-06, 6.51857636e-06, 4.81893358e-06,
          2.57310535e-06, 4.01870693e-06, 1.14784507e-06, 3.177162e-07,
          3.23846189e-06, 1.02304114e-07, -2.64327446e-06,
          4.97047176e-06, 7.96176835e-07, -8.90839203e-07, 3.9314159e-06,
          6.45810701e-07, -1.56983913e-06, 6.27922827e-06,
          3.92812717e-06, 1.58688351e-06, 9.08797028e-06, 7.57891848e-06,
          4.25874714e-06, 1.75366658e-05, 1.2401274e-05, 9.01038766e-06,
          1.44222686e-05, 1.11686113e-05, 8.42688951e-06, 6.55863096e-06,
          4.07896778e-06, 7.31810132e-07, 4.02093474e-06, 5.09230233e-07,
          -1.36283836e-06, 5.44986051e-06, 2.49892696e-06,
          1.47119238e-06, 1.3262149e-05, 9.37392542e-06, 7.71938721e-06,
          7.21369315e-06, 4.55202962e-06, 2.31822969e-06, 3.3629467e-06,
          1.96965038e-06, 5.68104383e-07, -2.193309e-06, -6.37281573e-06,
          -7.54284338e-06, 3.95303641e-06, 1.43301008e-06,
          -1.15855789e-06, 1.2749776e-05, 1.13328797e-05, 8.12587678e-06,
          1.54429545e-05, 1.2378001e-05, 9.58102919e-06, 1.33887406e-05,
          8.80712105e-06, 5.6284598e-06, 1.07677106e-05, 3.73160537e-06,
          -3.5981688e-07, 1.13669985e-05, 4.79246273e-06, 6.44010697e-07,
          5.61982961e-06, 9.54704333e-08, -1.37837412e-06,
          2.81803159e-06, -1.68611064e-06, -4.11805331e-06,
          3.68447331e-06, -9.60555326e-07, -3.20745835e-06,
          3.58255534e-06, 5.71982071e-07, -2.35267589e-06, 7.8789044e-06,
          1.4600904e-06, -6.77884657e-07, -1.94676636e-06,
          -5.86036822e-06, -8.73976205e-06, -9.331603e-06,
          -1.09767379e-05, -1.30979161e-05, -6.90793058e-06,
          -8.44721762e-06, -1.03646344e-05, -4.41168049e-06,
          -5.41137342e-06, -8.43307043e-06, -4.04801676e-06,
          -7.46353226e-06, -6.95308199e-06, 6.1353262e-07,
          -4.42855526e-06, -8.08051664e-06, 5.14171006e-06,
          -2.09158497e-06, -6.47047318e-06, 9.55838368e-06,
          1.77237894e-06, -3.33417393e-06, 9.56889562e-06,
          2.73349497e-06, -2.97501219e-06, 1.82336089e-06,
          -5.42887392e-06, -1.09808479e-05, -2.30735282e-06,
          -7.71094619e-06, -1.16203482e-05, 1.56689794e-06,
          -5.11456938e-06, -9.14267275e-06, 6.16559146e-06,
          -1.68142765e-06, -6.54856285e-06, 4.57016313e-06,
          -3.10567293e-06, -7.23367657e-06, 3.59887213e-06,
          -1.87678984e-06, -7.32276931e-06, 9.02579359e-06,
          1.17884895e-06, -5.04075342e-06, 1.0980455e-05, 4.56439875e-06,
          1.44313037e-06, 1.42660365e-05, 4.91938044e-06, 9.84939561e-07,
          1.15077091e-05, 5.7225343e-06, 1.16663097e-08, 1.42188546e-05,
          6.53557618e-06, 1.505559e-06, 4.98691315e-06, 6.10313862e-07,
          -6.33170521e-06, 9.61481237e-06, 2.34914705e-06,
          1.02322974e-06, 8.01337501e-06, 2.22069843e-06,
          -2.12391615e-06, 1.15922057e-05, 4.62968637e-06,
          8.12424389e-07, 9.67939559e-06, 4.13509679e-06, 4.58565921e-07,
          1.16710444e-05, 3.39696066e-06, -1.22859035e-06,
          1.39851682e-05, 4.29158627e-06, -3.2419112e-07, 8.16399108e-07,
          -1.84429678e-06, -3.25354517e-06, 1.12090369e-07,
          -3.63445974e-06, -5.65118171e-06, -6.55162808e-07,
          -3.01865725e-06, -5.02071953e-06, 7.57466807e-07,
          -2.96338135e-06, -4.6480518e-06, 1.5462685e-05, 9.55003816e-06,
          5.49764081e-06, 2.50136964e-05, 1.94045624e-05, 1.52877783e-05,
          2.70626024e-05, 2.36809847e-05, 2.19770336e-05, 2.16400203e-05,
          2.07392022e-05, 1.90809023e-05, 1.71817519e-05, 1.35480641e-05,
          1.180039e-05, 8.17871205e-06, 6.82195923e-06, 3.94015524e-06,
          7.02946363e-06, 3.45115404e-06, 2.56737326e-06, 1.1693428e-05,
          8.29475175e-06, 7.61337515e-06, 1.48496101e-05, 1.05211557e-05,
          7.0490637e-06, 5.24692587e-06, 2.91699303e-06, 2.11372867e-06,
          8.44168085e-07, -1.3232584e-06, -3.64885e-06, 9.29189264e-06,
          6.49945696e-06, 4.04382945e-06, 1.03514421e-05, 7.45317539e-06,
          5.68441237e-06, 6.38787515e-06, 6.22461448e-06, 5.53427208e-06,
          1.34459515e-05, 1.0900756e-05, 9.13960866e-06, -1.98779048e-06,
          -3.96770156e-06, -5.28715464e-06, -1.61483126e-06,
          -4.32781826e-06, -4.95018048e-06, 3.77149536e-06,
          8.79584547e-07, -1.1926652e-06, 2.28560043e-06, 5.30359387e-07,
          -1.77158131e-06, 5.88028615e-06, 2.32213233e-06,
          5.39690461e-07, 3.74219462e-06, -8.92748346e-07,
          -4.87895659e-06, 4.81257075e-06, 1.51053416e-06,
          1.02160357e-06, -2.41298835e-06, -2.4298547e-06,
          -2.99545286e-06, 9.49772038e-06, 9.20844195e-06,
          7.23063567e-06, 1.07050846e-05, 7.91296407e-06, 4.62489334e-06,
          9.43089071e-06, 5.29543422e-06, 1.94006225e-06, 1.5697171e-05,
          8.07562083e-06, 3.05979984e-06, 9.59872796e-06, 5.18979141e-06,
          6.32674528e-07, 4.20348942e-06, -1.4490881e-07,
          -1.75079322e-07, 1.13060478e-05, 6.07478569e-06,
          4.34038429e-06, 1.50216067e-06, -1.19820777e-06,
          -4.52415452e-06, 1.39721533e-06, -1.34180982e-06,
          -3.95559573e-06, -2.14360639e-07, -2.74399031e-06,
          -5.08048424e-06, 8.82180871e-08, -2.6259504e-06,
          -4.49368008e-06, -1.90407377e-06, -9.77135369e-06,
          -1.26172063e-05, -1.44526966e-05, -1.68826664e-05,
          -1.69835675e-05, -6.61961485e-06, -9.3315748e-06,
          -1.19550186e-05, -7.31737657e-08, -5.47095215e-06,
          -8.02563591e-06, 2.75745947e-06, -2.2892425e-06,
          -3.34866081e-06, 3.98184011e-06, -1.49326368e-07,
          -6.59992475e-06, 8.36854997e-06, 3.03404204e-06,
          -1.19065965e-06, 4.53135908e-06, -1.34770971e-06,
          -7.52772939e-06, -6.53521511e-06, -1.12561656e-05,
          -1.48077161e-05, -3.62040367e-07, -6.24145878e-06,
          -1.10064602e-05, 4.8754805e-06, -2.08366532e-06,
          -6.5309946e-06, 6.05957712e-06, -4.38399042e-07,
          -3.6668614e-06, 7.77888636e-06, 7.7682256e-07, -4.39893938e-06,
          6.28043063e-06, 1.71945089e-06, -3.85395879e-06,
          3.44790851e-06, -2.32422076e-06, -1.04984128e-05,
          1.25797469e-05, 5.49578544e-06, 6.28493979e-07, 8.87846636e-06,
          3.4174177e-06, -1.84580199e-06, 1.33289514e-05, 5.35135814e-06,
          -2.96171862e-07, 9.74956674e-06, 1.10390397e-06,
          -4.26279939e-06, 3.62539959e-06, -2.53664189e-06,
          -6.26111523e-06, 8.51457389e-06, 2.48366814e-06,
          -1.68496513e-06, 8.60999171e-06, 2.26294742e-06,
          -1.59808076e-06, 6.52950257e-06, 4.31329454e-07,
          -2.46437003e-06, 8.87580063e-06, 3.67409712e-06,
          8.29752366e-07, 8.79904746e-06, 1.91934009e-06,
          -2.05549918e-06, 1.00046509e-05, 1.79388724e-06,
          -4.60263527e-06, -2.29945431e-06, -5.11467715e-06,
          -6.04038041e-06, -3.19443927e-07, -3.09515212e-06,
          -5.20359754e-06, -5.33480659e-07, -2.69328234e-06,
          -4.96562961e-06, 4.25379812e-06, 3.04409724e-08,
          -2.85907026e-06, 1.58413459e-05, 1.10340252e-05,
          8.73656791e-06, 2.55804316e-05, 1.99349033e-05, 1.70482908e-05,
          2.1914595e-05, 1.89420025e-05, 1.77393977e-05, 2.08938472e-05,
          1.81257674e-05, 1.50333917e-05, 1.52463017e-05, 1.25374463e-05,
          1.11005475e-05, 7.02973011e-06, 4.88944852e-06, 2.13366661e-06,
          1.34370257e-05, 9.69384837e-06, 8.54558584e-06, 2.2578688e-05,
          1.89873062e-05, 1.70891562e-05, 1.93508604e-05, 1.54360223e-05,
          1.56745082e-05, 7.23731773e-06, 4.72951706e-06, 4.84372003e-06,
          1.38726796e-06, -9.05210186e-07, -2.23314146e-06,
          5.11408098e-06, 3.7667196e-06, 3.44694399e-06, 2.65613653e-06,
          6.07220557e-07, 5.47215564e-07, 8.75617658e-08, -8.3010562e-08,
          -1.40132829e-06, 6.20104311e-06, 4.50596826e-06,
          4.37551307e-06, 4.42257124e-06, 3.36009634e-06, 2.14856914e-06,
          -1.36042377e-06, -3.51361905e-06, -4.67577092e-06,
          2.44860576e-06, 8.69515816e-07, -5.88038063e-07, 3.0284566e-06,
          2.31054059e-06, 2.22296217e-06, 7.11455323e-06, 2.58491968e-06,
          -9.668166e-08, 1.46947752e-06, 9.59669478e-07, -8.18230546e-07,
          5.48039952e-06, 4.61804757e-06, 1.8529613e-06, 4.83527765e-06,
          3.54969961e-06, 4.45989326e-06, 7.55222845e-06, 6.77345088e-06,
          6.9592611e-06, 7.01439467e-06, 4.76751802e-06, 2.76147694e-06,
          1.04944093e-05, 4.99403586e-06, 3.69801057e-07, 2.30885234e-05,
          1.54109093e-05, 1.2519502e-05, 1.32184059e-05, 5.01285103e-06,
          8.97725442e-07, 9.3403678e-06, 6.32275578e-06, 3.38360519e-06,
          4.54884412e-06, 2.92870754e-06, 1.7502613e-07, 6.23939786e-06,
          4.78792299e-06, 3.92849552e-06, 3.08859035e-06, 5.18755314e-07,
          -3.98967217e-07, 4.55465823e-07, -2.5718914e-06,
          -4.54438714e-06, 4.19147045e-06, 7.0835614e-07,
          -1.26347527e-06, -1.02822041e-05, -1.38099249e-05,
          -1.36891795e-05, -7.93529762e-06, -9.68989661e-06,
          -1.24556454e-05, -7.23325684e-06, -8.39659242e-06,
          -1.261948e-05, -6.1150613e-06, -1.13806555e-05, -1.0567338e-05,
          -1.54122029e-06, -4.78489346e-06, -5.54881672e-06,
          3.04463538e-06, 4.67067736e-07, -4.58672002e-06,
          2.11187034e-06, -3.84238047e-06, -8.31790294e-06,
          8.3699415e-06, 1.52214579e-06, -4.95851873e-06, 5.28489545e-06,
          -2.81618304e-06, -9.57469456e-06, 1.98993416e-06,
          -2.10381859e-06, -8.4539206e-06, 5.93515324e-06,
          4.92324091e-07, -2.00084401e-06, 4.74869739e-06,
          -2.0022926e-06, -6.85201167e-06, 1.02714084e-05,
          3.71254896e-06, -1.40050258e-06, 9.515682e-06, 2.6487694e-06,
          -4.43794352e-06, 9.98684118e-06, 4.13072212e-06,
          -2.4103681e-06, 1.03600314e-05, 2.25489089e-06,
          -3.71429337e-06, 3.71195642e-06, -3.10897263e-07,
          -7.05587991e-06, 1.68236256e-05, 7.07094205e-06,
          1.45815068e-06, 1.21128023e-05, 2.48611059e-06,
          -3.10745099e-06, 6.33987747e-06, -9.61394335e-07,
          -5.12046745e-06, 1.23866948e-05, 5.31926707e-06,
          4.73099135e-07, 1.07359174e-05, 4.95343556e-06,
          -7.11077234e-07, 1.47724913e-05, 7.38124754e-06,
          3.63204981e-06, 4.80884728e-06, -1.06294145e-07,
          -3.1111274e-06, 5.89774208e-06, 5.54975479e-08,
          -3.68856035e-06, 9.80845016e-06, 6.36349228e-07,
          -3.96698852e-06, 1.41495161e-06, -3.00453416e-06,
          -4.73811406e-06, 1.70682472e-06, -1.98411112e-06,
          -3.8705366e-06, 1.66070913e-06, -2.78479115e-06,
          -5.35537765e-06, 6.81689653e-06, 1.17145385e-06,
          -1.84726446e-06, 1.19948209e-05, 8.20739933e-06,
          5.19507148e-06, 2.12771611e-05, 1.7139937e-05, 1.30749486e-05,
          1.84172277e-05, 1.56903916e-05, 1.47275123e-05, 1.6349908e-05,
          1.24106782e-05, 9.80093591e-06, 1.07553433e-05, 6.38720257e-06,
          4.58048135e-06, 1.40535958e-05, 1.19393872e-05, 1.10094397e-05,
          1.87248061e-05, 1.52719458e-05, 1.38373061e-05, 2.04284206e-05,
          1.89486218e-05, 1.85750105e-05, 2.12595769e-05, 1.99135902e-05,
          1.72096734e-05, 3.10904647e-06, 1.2877141e-06, 1.57964575e-06,
          5.48276421e-06, 3.38237146e-06, 2.86491422e-06, 2.14291231e-06,
          9.16946874e-07, 5.25960672e-07, -3.3941435e-06,
          -2.96632697e-06, -3.38551354e-06, -1.31030106e-06,
          -2.58235991e-06, -4.1886571e-07, 1.03677667e-05,
          8.46165858e-06, 9.30818624e-06, 8.36938216e-06, 6.12213489e-06,
          4.41103384e-06, 8.59040597e-07, -2.24243223e-07,
          -2.66137931e-06, 1.78462824e-06, 3.76543966e-07,
          -2.11933795e-07, 7.53565564e-06, 4.09686618e-06,
          3.64118068e-06, 5.95071469e-06, 4.27974055e-06, 2.25766485e-06,
          5.36578773e-06, 1.63124923e-06, 1.02386059e-06, 1.88207459e-08,
          -4.82276903e-07, 4.23636124e-07, 3.08337349e-06,
          2.94581014e-06, 2.59499916e-06, 1.55844145e-06, 8.46432442e-07,
          1.17272407e-06, 1.03152997e-05, 7.61842603e-06, 3.23667859e-06,
          2.48365996e-05, 1.94359e-05, 1.61254957e-05, 2.28051576e-05,
          1.75411278e-05, 1.31889319e-05, 1.53275269e-05, 8.7423341e-06,
          2.88430556e-06, 1.39828117e-05, 9.97551888e-06, 7.67202891e-06,
          1.59417013e-05, 1.10062128e-05, 1.06949001e-05, 9.78720436e-06,
          6.12242729e-06, 4.44530951e-06, 6.43076328e-06, 2.6730911e-06,
          1.84506803e-07, 5.39149687e-06, 3.98182829e-06, 3.79981566e-06,
          6.51967412e-06, 2.66758684e-06, 1.83962322e-06,
          -2.75418597e-06, -6.4211913e-06, -7.91724324e-06,
          -6.63300079e-06, -8.73421868e-06, -9.14786597e-06,
          -4.70362056e-06, -8.70457734e-06, -9.98161522e-06,
          -5.04107857e-06, -8.22065613e-06, -1.03865086e-05,
          -1.16514821e-06, -3.79855055e-06, -4.9053001e-06,
          4.24667041e-06, 7.02313457e-07, -2.05004949e-06,
          -2.84819589e-06, -6.58658882e-06, -1.14510785e-05,
          6.44168813e-06, -4.66441264e-07, -5.2605933e-06,
          6.43228759e-07, -4.06840127e-06, -9.38816902e-06,
          4.92188019e-06, -1.65651045e-06, -8.24837025e-06,
          6.43648536e-06, 1.01932608e-06, -4.87331499e-06,
          7.40117684e-06, 9.3904157e-07, -4.593413e-06, 8.97445716e-06,
          2.50995276e-06, -1.64996516e-06, 9.38822905e-06,
          1.61793969e-06, -3.27382804e-06, 1.2071815e-05, 3.50790197e-06,
          -3.05231356e-06, 1.02139438e-05, 3.88528406e-06,
          -3.52147435e-06, 8.17716045e-06, 7.38830067e-07,
          -5.38618315e-06, 9.81991707e-06, 3.80651045e-06,
          -8.1040406e-07, 6.79119921e-06, -1.23779773e-06,
          -7.35921412e-06, 9.48277193e-06, 1.58931334e-06,
          -2.77809568e-06, 4.63822789e-06, -2.60629395e-06,
          -6.30489149e-06, 1.19650213e-05, 4.14302167e-06,
          -1.63899722e-06, 1.26386558e-05, 4.79501068e-06,
          -2.56006587e-07, 8.46133025e-06, 2.20721063e-06,
          5.78424817e-07, 6.35671859e-06, -1.39149131e-06,
          -6.7795645e-06, 7.99493864e-06, -4.54850152e-07,
          -6.25931852e-06, 7.62964305e-07, -4.06567324e-06,
          -5.6529675e-06, -7.23508606e-07, -3.30256876e-06,
          -4.37091103e-06, 6.88386217e-06, 1.44621595e-06,
          -7.00748103e-07, 1.5478663e-05, 1.03750526e-05, 6.56594102e-06,
          1.89994917e-05, 1.39708336e-05, 9.12166797e-06, 1.92284333e-05,
          1.73635926e-05, 1.31764864e-05, 1.67722264e-05, 1.37381121e-05,
          9.84387589e-06, 1.97896279e-05, 1.52751018e-05, 1.07002379e-05,
          1.88061913e-05, 1.51723943e-05, 1.23892187e-05, 1.67995659e-05,
          1.42190574e-05, 1.08056811e-05, 1.91026083e-05, 1.67438193e-05,
          1.58296989e-05, 2.36241067e-05, 2.23593233e-05, 2.0571475e-05,
          1.64986795e-05, 1.5616728e-05, 1.51042768e-05, 9.70330711e-06,
          7.81404015e-06, 8.19976049e-06, 3.91868753e-06, 2.37240033e-06,
          2.4092667e-06, -4.98320333e-06, -5.06775905e-06,
          -4.28302292e-06, -5.7988459e-06, -6.00613293e-06,
          -5.62350533e-06, -2.49078721e-06, -3.21177538e-07,
          4.1757599e-07, 6.07379889e-06, 6.12105805e-06, 7.06963237e-06,
          5.8918572e-06, 4.91649325e-06, 5.1441034e-06, 1.58500416e-06,
          7.74051045e-07, -2.82864198e-06, 8.28407451e-07,
          -1.04466972e-06, -1.32843763e-06, 3.51822223e-06,
          6.57883788e-07, 9.26295968e-07, 5.31194019e-06, 2.54241036e-06,
          2.46411673e-06, 9.47977423e-06, 6.39657173e-06, 5.09344363e-06,
          -5.64815288e-08, 3.53109968e-08, 1.76546382e-06,
          5.40683095e-06, 3.03490879e-06, 3.73279613e-06, 7.26381677e-06,
          5.42169482e-06, 4.60120418e-06, 1.98924081e-05, 1.55860944e-05,
          1.06522984e-05, 2.0624615e-05, 1.66321661e-05, 1.32684208e-05,
          2.54431798e-05, 1.88594422e-05, 1.50985206e-05, 1.27279118e-05,
          9.64775245e-06, 1.86188686e-06, 1.40782522e-05, 9.40794143e-06,
          8.4442654e-06, 1.02552249e-05, 7.55124938e-06, 6.03573926e-06,
          1.36584977e-05, 1.25758288e-05, 1.02485965e-05, 8.66081155e-06,
          6.53860479e-06, 6.26155042e-06, 4.32768411e-06, 1.99808642e-06,
          4.19024559e-07, 3.42049907e-06, 2.89915931e-07,
          -2.31397257e-06, -2.02775482e-06, -4.77054618e-06,
          -7.4120012e-06, -3.85701878e-06, -8.05719264e-06,
          -1.14493578e-05, -5.5259602e-06, -6.37852509e-06,
          -8.7025619e-06, -2.66467487e-06, -6.69671681e-06,
          -7.60447483e-06, -1.99034707e-06, -5.06993456e-06,
          -8.95335688e-06, 1.49970708e-06, -3.13523515e-07,
          -4.40172835e-06, 2.71982594e-06, -1.13661633e-06,
          -7.48756611e-06, 5.06776541e-06, -1.34120205e-06,
          -3.65527126e-06, 9.96031577e-06, 3.0873714e-06,
          -2.42397164e-07, 7.10069662e-06, 1.01360445e-06,
          -5.57275598e-06, 4.94023834e-06, -1.63918514e-06,
          -8.40932535e-06, 8.11823156e-06, 2.45232991e-06,
          -3.78441882e-06, 5.69581698e-06, -2.1727335e-06,
          -7.16914383e-06, 5.90497893e-06, -3.65206574e-07,
          -4.96273151e-06, 1.16082019e-05, 2.85884903e-06,
          -3.21443417e-06, 5.5712585e-06, -6.62881732e-08,
          -5.64413403e-06, 3.8753351e-06, -1.91477739e-07,
          -4.03166587e-06, 9.03916316e-06, 2.99251678e-06,
          -3.95769348e-07, 9.51703805e-06, 3.55512293e-06,
          -3.40318275e-06, 1.0193422e-05, 1.25036797e-06,
          -3.41231112e-06, 7.30789725e-06, 1.96371775e-06,
          -3.30297871e-06, 1.49908446e-05, 6.19731009e-06,
          3.79430531e-07, 1.15087159e-05, 4.1909143e-06, -3.35163736e-06,
          7.15330043e-06, 1.02471984e-06, -3.2635262e-06, 9.55924043e-06,
          4.92130198e-07, -3.16081378e-06, 8.09302583e-06,
          2.03305007e-07, -5.84038753e-06, 2.78871812e-06,
          -1.24281155e-06, -2.42420742e-06, 1.20394463e-06,
          -1.29159935e-06, -2.57072588e-06, 1.5017049e-05,
          9.22017625e-06, 5.87798604e-06, 1.92321295e-05, 1.41298187e-05,
          1.11519503e-05, 2.79162396e-05, 2.3275863e-05, 1.82380336e-05,
          2.79175401e-05, 2.42739461e-05, 1.98396792e-05, 2.28032168e-05,
          1.87573369e-05, 1.48441177e-05, 2.00279537e-05, 1.60526597e-05,
          1.28325537e-05, 1.33295571e-05, 1.12354846e-05, 8.74022044e-06,
          1.61177031e-05, 1.46229313e-05, 1.29518448e-05, 1.72456275e-05,
          1.54467143e-05, 1.48018344e-05, 1.66110367e-05, 1.36378085e-05,
          1.40115262e-05, 1.37000725e-05, 1.14551667e-05, 1.13857104e-05,
          8.88014529e-06, 6.0624252e-06, 5.59271484e-06, -3.1801203e-06,
          -2.94861343e-06, -3.4095749e-06, -5.508909e-06,
          -6.78654305e-06, -6.84104771e-06, 3.05364756e-06,
          -1.72343363e-07, 2.45484102e-06, -4.02075017e-07,
          2.18289657e-07, 1.02110835e-06, 7.79326183e-06, 7.68249174e-06,
          7.82072857e-06, 6.04519391e-06, 6.02471755e-06, 7.11182338e-06,
          1.36851588e-06, 9.71157533e-07, 2.07302764e-06,
          -1.94916561e-06, -3.16927367e-06, -3.29779391e-06,
          -2.66664802e-06, -2.04446405e-06, -4.13851649e-06,
          1.18761754e-05, 8.90080537e-06, 7.75871376e-06, 1.02193126e-05,
          5.21418997e-06, 4.30766249e-06, 1.87344176e-06, 3.72057821e-06,
          4.40410849e-06, 5.83553037e-06, 5.76456887e-06, 6.90912793e-06,
          1.76588637e-05, 1.53112614e-05, 1.40910861e-05, 2.09447153e-05,
          1.72564505e-05, 1.59394276e-05, 1.46680559e-05, 1.17302416e-05,
          8.60784439e-06, 1.44047863e-05, 1.26237919e-05, 1.40126194e-05,
          1.78012724e-05, 1.52777284e-05, 1.14913046e-05, 9.85128008e-06,
          7.0866945e-06, 6.85601935e-06, 5.37013966e-06, 2.42421675e-06,
          3.8252806e-06, 2.19654021e-06, -8.85841473e-07,
          -1.41718681e-06, 7.3572528e-06, 7.3551314e-06, 4.86030058e-06,
          4.82095584e-06, 1.70153407e-06, 2.91185415e-06, 6.22462903e-06,
          2.56522662e-06, 6.06479034e-07, 3.56298347e-06, 2.0645372e-07,
          -3.22894721e-06, -4.89389458e-06, -7.15163696e-06,
          -8.02168324e-06, -5.85199359e-06, -8.14933173e-06,
          -1.049403e-05, -2.1872645e-06, -5.52963093e-06,
          -8.84575002e-06, -3.23696531e-06, -6.90308343e-06,
          -8.72651435e-06, 3.48245567e-06, 2.10063877e-06,
          -1.5550271e-06, 1.09256989e-05, 7.32418266e-06, 3.82912685e-06,
          3.2593457e-06, -2.67863629e-06, -6.2198892e-06, 1.1639203e-05,
          4.03524473e-06, -2.02198953e-06, 7.68406881e-06,
          4.95183372e-07, -3.94095605e-06, 2.19163053e-06,
          -3.11870735e-06, -8.52477478e-06, 4.65786752e-06,
          -1.55154044e-06, -8.20591322e-06, 1.11189934e-06,
          -5.33068715e-06, -9.89824639e-06, 7.43921646e-06,
          3.79211485e-07, -5.7665311e-06, 8.78776518e-06, 3.12789871e-06,
          -4.67354766e-06, 3.23414247e-06, -3.00706142e-06,
          -8.60693854e-06, 3.41329201e-06, -2.07626954e-06,
          -7.06556875e-06, 5.17806438e-06, -2.45229216e-06,
          -7.34302512e-06, 6.90613933e-06, 1.06923324e-06,
          -5.07011509e-06, 5.13627856e-06, 8.02663521e-07,
          -7.23516223e-06, 9.97748248e-06, 4.65436096e-06,
          -8.66747712e-07, 1.24096223e-05, 3.19771425e-06,
          -2.64785172e-06, 1.0419124e-05, 4.09379481e-06,
          -2.07370795e-06, 7.4529712e-06, 1.92289031e-06,
          -4.01835268e-06, 5.36341349e-06, -2.45991089e-07,
          -4.61533318e-06, 1.26340574e-05, 2.98128634e-06,
          -3.01627438e-06, 9.91841844e-08, -3.16273372e-06,
          -4.00819681e-06, 4.14083297e-06, 5.41558165e-07,
          -1.17306638e-06, 2.32421535e-05, 1.67523121e-05,
          1.19803735e-05, 2.43435279e-05, 1.74749348e-05, 1.27403609e-05,
          2.36845335e-05, 1.96453584e-05, 1.417987e-05, 2.10170238e-05,
          1.71766806e-05, 1.17613181e-05, 1.89432849e-05, 1.44871265e-05,
          9.36758897e-06, 1.46680704e-05, 1.07440719e-05, 7.98959991e-06,
          1.38919713e-05, 1.03084822e-05, 8.33387094e-06, 2.24286887e-05,
          1.85088848e-05, 1.64491721e-05, 1.00721718e-05, 8.33265858e-06,
          7.87363115e-06, 1.02421336e-05, 8.68013558e-06, 8.44014903e-06,
          7.94006974e-06, 7.67956135e-06, 8.12987491e-06, 1.08730292e-05,
          1.07722381e-05, 9.46793352e-06, 3.75038121e-06, 3.3132435e-06,
          1.42260615e-06, 2.07080529e-06, 6.25169946e-07,
          -1.16276937e-07, 3.91532922e-06, 3.67663961e-06,
          4.67076961e-06, 8.94619802e-07, 8.59303213e-07, 3.48047433e-06,
          6.45279761e-06, 7.20064509e-06, 9.39833899e-06, 5.01195427e-06,
          6.38355459e-06, 6.98138228e-06, -5.07862023e-06,
          -2.90618232e-06, -5.04637228e-07, -1.49627704e-06,
          -2.06517598e-06, -1.14435875e-06, 4.14284887e-06,
          2.30916839e-06, 2.37221138e-06, 1.00607185e-05, 1.07094538e-05,
          1.15949179e-05, 3.99240798e-06, 4.66246001e-06, 5.74910791e-06,
          -4.41012116e-06, -3.75878358e-06, -9.92888772e-07,
          1.66353311e-05, 1.60696782e-05, 1.88208323e-05, 1.95628254e-05,
          1.9690764e-05, 2.00251507e-05, 1.40506554e-05, 1.23504797e-05,
          1.07934848e-05, 1.39147744e-06, 3.14286012e-07,
          -1.93456435e-06, 1.86833859e-05, 1.68945062e-05,
          1.73026965e-05, 1.42503168e-05, 1.2562391e-05, 1.17633717e-05,
          4.62061826e-06, 4.12705367e-06, 4.85143755e-06, 6.60072192e-06,
          7.48992079e-06, 8.78282663e-06, 8.48336549e-06, 7.01809267e-06,
          7.58718716e-06, 5.14093381e-06, 5.80467076e-06, 5.9105555e-06,
          1.26629936e-06, 1.34755078e-06, 1.77649792e-06, 8.64505728e-06,
          5.14430667e-06, 2.53047369e-06, -1.02486354e-06,
          -4.49372465e-06, -5.07711502e-06, -2.28750264e-06,
          -6.92525327e-06, -8.16047304e-06, -2.21953815e-06,
          -6.86924386e-06, -7.96634959e-06, -1.20541574e-06,
          -4.29952979e-06, -5.16198907e-06, -1.8353951e-06,
          -3.82659755e-06, -4.38183952e-06, 5.24493134e-06,
          2.89735294e-06, 8.93685694e-07, 6.89678882e-06, 3.16819796e-06,
          -3.16786418e-06, 9.68831046e-06, 3.30794273e-06,
          -5.25282246e-07, 9.31555405e-06, 2.69392376e-06,
          -1.29023169e-06, 5.1684392e-06, -4.15441406e-07,
          -6.50536549e-06, 5.90404579e-06, -2.66243069e-06,
          -7.17370904e-06, 6.64828758e-06, 1.58289004e-06,
          -3.93740993e-06, 2.97743418e-06, -2.88995147e-06,
          -7.57250336e-06, 7.01433828e-06, -8.95994674e-07,
          -6.12924259e-06, 8.89480452e-06, 1.86939849e-06,
          -3.53714086e-06, 3.95913275e-06, -3.55861016e-06,
          -1.00804637e-05, 6.32718127e-07, -4.45985688e-06,
          -7.75386798e-06, 5.24446205e-06, -7.86610599e-07,
          -5.84315831e-06, 4.5294596e-06, -1.60953653e-06,
          -7.41256827e-06, -1.42978831e-06, -6.91250671e-06,
          -1.22169531e-05, 1.20395607e-05, 3.8913513e-06,
          -3.20405775e-07, 8.12442158e-06, 1.84585417e-06,
          -4.59967487e-06, 1.12106218e-05, 4.03862441e-06,
          -1.21939797e-06, 1.05266627e-05, 3.60005356e-06,
          -2.69494694e-06, 8.16503689e-06, 4.36389939e-07,
          -1.57006127e-06, 8.88654722e-06, 1.67940334e-06,
          -5.06170682e-06, -2.4770145e-06, -5.51938319e-06,
          -8.09050562e-06, 7.77695641e-06, 1.22595452e-06,
          -3.01493151e-06, 1.38166579e-05, 9.72548514e-06,
          7.03747446e-06, 2.1851778e-05, 1.67444341e-05, 1.25087463e-05,
          1.88966787e-05, 1.50588867e-05, 1.09182729e-05, 1.70306412e-05,
          1.26525474e-05, 8.75655951e-06, 1.69987779e-05, 1.31409843e-05,
          9.41820781e-06, 1.59800911e-05, 1.31389443e-05, 9.6080048e-06,
          2.39390556e-05, 2.23777697e-05, 1.9064466e-05, 2.22150284e-05,
          1.89737202e-05, 1.8626095e-05, 7.68905738e-06, 5.55453789e-06,
          5.41431154e-06, 7.36661332e-06, 6.07338234e-06, 5.74667592e-06,
          1.02566064e-05, 1.06409816e-05, 9.78470143e-06, 1.61795997e-05,
          1.59953252e-05, 1.44868527e-05, 3.63235608e-06, 3.56985811e-06,
          4.0704299e-06, 4.5583779e-06, 6.06831418e-06, 6.96501365e-06,
          -1.00507589e-06, -2.91520649e-07, 1.13115391e-06,
          -4.15520299e-06, -3.33608909e-06, -2.03902982e-06,
          4.86101362e-06, 6.75491174e-06, 9.20342518e-06, 1.63684911e-06,
          2.08857591e-06, 5.76743241e-06, -6.41962561e-06,
          -4.73290675e-06, -1.29397529e-06, -2.47722119e-06,
          -2.14438796e-06, 5.51514105e-08, -3.11292592e-06,
          -2.50081825e-06, 4.00459697e-07, 4.79660685e-06,
          6.97479663e-06, 8.57460873e-06, 2.04508547e-06, 4.26099086e-06,
          7.73350985e-06, -5.29051249e-06, -4.81345069e-06,
          -1.62054945e-07, 1.37689244e-06, 4.77082949e-06,
          1.04070295e-05, 8.84267229e-06, 1.08124223e-05, 1.39838821e-05,
          1.37026873e-05, 1.40635484e-05, 1.24056296e-05, 1.2115047e-05,
          1.03065686e-05, 8.39839868e-06, 2.72499074e-05, 2.66623665e-05,
          2.72470352e-05, 2.27706405e-05, 2.3070299e-05, 2.27635028e-05,
          1.92167554e-05, 1.92202479e-05, 2.31453287e-05, 1.56145379e-05,
          1.4422375e-05, 1.64625599e-05, 7.22844288e-06, 4.33010928e-06,
          7.60691273e-06, 3.24857842e-06, 3.17937406e-06, 5.39403163e-06,
          7.23145968e-06, 7.38452536e-06, 8.54174505e-06, 1.96184806e-06,
          8.0501917e-07, -2.9974575e-07, 6.47713205e-06, 2.47885578e-06,
          6.25647999e-07, -3.29651698e-07, -3.59223009e-06,
          -5.95579149e-06, -4.44018178e-06, -8.65751099e-06,
          -1.13431597e-05, -5.73617911e-07, -3.81229097e-06,
          -4.9455557e-06, 4.97371639e-06, 3.54248664e-06, 1.37726306e-06,
          6.43163003e-06, 3.05248523e-06, 1.07155847e-06, 6.94773689e-06,
          2.37216273e-06, 2.075666e-07, 9.49386776e-06, 3.32347759e-06,
          -6.96622521e-07, 1.3794529e-05, 6.09660174e-06,
          -9.97606435e-07, 4.97286919e-07, -6.07424545e-06,
          -9.50463073e-06, 3.99127703e-06, -3.34275433e-06,
          -1.2616948e-05, 1.0385259e-05, 2.92156051e-06, -2.23377197e-06,
          6.72524584e-06, 1.32187154e-07, -7.44147837e-06,
          3.63833942e-06, -2.29469879e-06, -7.71625128e-06,
          1.23204454e-05, 5.90628133e-06, 2.79414365e-07,
          -7.50789695e-07, -3.71558031e-06, -1.05553318e-05,
          3.47888431e-06, -3.06991751e-06, -8.74685338e-06,
          2.02294746e-06, -4.53950588e-06, -7.4203117e-06,
          3.13819851e-06, -2.48415631e-06, -6.55012673e-06,
          3.51426525e-06, -2.57490501e-06, -8.97149857e-06,
          9.10670678e-06, 3.34647234e-06, -1.61900221e-06,
          7.34436753e-06, 2.388143e-06, -2.85660531e-06, 9.71340978e-06,
          2.56047429e-06, -3.1341167e-06, 4.93802872e-06,
          -1.30557078e-06, -6.01217107e-06, 6.45679938e-06,
          -9.35708442e-07, -5.93946379e-06, 6.97117139e-06,
          3.67063194e-07, -4.06962863e-06, -2.55058649e-06,
          -6.18442436e-06, -8.94828463e-06, 1.339961e-05, 4.87553007e-06,
          -2.07943444e-07, 1.22887341e-05, 7.16273462e-06,
          5.25041241e-06, 1.26723517e-05, 9.52429764e-06, 6.27894497e-06,
          1.33904414e-05, 9.76665888e-06, 5.48461139e-06, 1.45547701e-05,
          1.12763628e-05, 6.76794298e-06, 1.66241516e-05, 1.26586619e-05,
          8.43227645e-06, 1.73394765e-05, 1.43291336e-05, 1.15429903e-05,
          2.41760481e-05, 2.16251319e-05, 1.9816438e-05, 9.39976144e-06,
          8.50511697e-06, 7.49527499e-06, 5.8302162e-06, 5.44015393e-06,
          4.54041901e-06, 7.15328133e-06, 6.51760774e-06, 4.67404197e-06,
          2.04104635e-05, 2.00657287e-05, 1.95853318e-05, 1.49910866e-05,
          1.60364725e-05, 1.58235398e-05, 4.21329469e-06, 4.71668e-06,
          5.98373845e-06, 3.98766446e-07, 2.07030939e-06, 2.60583192e-06,
          -6.73524255e-06, -5.06068363e-06, -4.06096524e-06,
          -3.82249664e-06, -2.75191542e-06, -7.9021811e-07,
          2.13999442e-06, 4.56327962e-06, 8.36840081e-06, 2.50522294e-06,
          5.18357729e-06, 8.57517807e-06, -8.70508666e-06,
          -6.82471773e-06, -4.42630699e-06, -2.9809853e-06,
          -3.16645082e-06, -1.85403178e-06, -1.68903e-06,
          -1.91680033e-06, 1.12938505e-06, 3.27391376e-06,
          3.82276357e-06, 5.94490666e-06, 5.40397377e-06, 8.75019941e-06,
          1.33701687e-05, -1.24490325e-05, -9.182555e-06,
          -1.41585201e-06, 8.47219255e-08, 3.45523495e-06,
          9.14137763e-06, 8.91319178e-06, 1.07847236e-05, 1.80048446e-05,
          2.52638783e-05, 2.56429848e-05, 2.70643795e-05, 2.52738337e-05,
          2.34349791e-05, 2.27576202e-05, 2.89446089e-05, 2.98727155e-05,
          3.02710305e-05, 2.38800076e-05, 2.25611566e-05, 2.45480969e-05,
          2.1858601e-05, 2.30881215e-05, 2.25050026e-05, 1.51683735e-05,
          1.50644628e-05, 1.5884174e-05, 1.00859347e-06, 2.14237548e-06,
          3.48550475e-06, -2.57076749e-06, -1.87495118e-06,
          7.67983011e-07, -9.05972968e-07, -1.15349894e-06, 2.282368e-07,
          3.63540084e-06, 4.13203907e-06, 4.63678634e-06, 3.72080444e-06,
          1.39546137e-06, -1.53976407e-06, -2.3739924e-06,
          -6.05001378e-06, -6.28663565e-06, 1.27101202e-06,
          -4.63559587e-07, -3.16243427e-06, 1.20980303e-06,
          -6.77042181e-07, -4.43094814e-06, 3.09109805e-06,
          -1.00180864e-06, -4.20935464e-07, 8.36469826e-06,
          3.66555287e-06, 1.3421004e-06, 2.85454666e-06, -1.48322022e-06,
          -4.52103041e-06, 1.43328884e-06, -3.26159147e-06,
          -8.33255308e-06, 8.1437729e-06, 1.8613257e-06, -3.6767201e-06,
          1.86604595e-07, -5.06354991e-06, -1.05480867e-05,
          2.82484757e-06, -3.58004263e-06, -9.46933324e-06,
          6.60578053e-06, 5.49733159e-07, -6.32826641e-06,
          6.43138674e-06, 4.70443169e-08, -5.75773993e-06,
          2.85878423e-06, -2.59577996e-06, -9.79160177e-06,
          1.10053625e-05, 3.13545502e-06, -1.62504386e-06, 4.183285e-06,
          -3.80770553e-06, -9.57733755e-06, 3.02380863e-06,
          -2.59891249e-06, -8.85975351e-06, 7.54926646e-08,
          -6.56838893e-06, -1.28025749e-05, 1.87836761e-07,
          -5.43152237e-06, -8.84040946e-06, -3.58789475e-06,
          -9.68990935e-06, -1.37987736e-05, 3.16472142e-06,
          -1.61597723e-06, -7.13829559e-06, 6.75327919e-06,
          1.02628564e-06, -6.57919645e-06, 5.6214667e-06, 7.79557183e-07,
          -5.1350853e-06, 4.74143735e-06, -1.48543381e-06,
          -5.94100902e-06, 6.72639408e-06, 5.55580073e-07,
          -5.96150994e-06, 6.71616908e-06, 2.34934168e-06,
          -4.62137405e-06, -1.49865434e-06, -7.23961375e-06,
          -1.07805499e-05, 1.33784179e-05, 8.38980122e-06,
          4.13244925e-06, 2.01976345e-05, 1.42977678e-05, 9.43822943e-06,
          1.40723832e-05, 1.05005847e-05, 7.00892861e-06, 1.32617688e-05,
          1.01281857e-05, 5.64250877e-06, 1.3836192e-05, 1.09172015e-05,
          5.63065396e-06, 1.68624301e-05, 1.2975499e-05, 1.00293828e-05,
          2.28293065e-05, 1.93388005e-05, 1.62564738e-05, 1.62166834e-05,
          1.40696766e-05, 1.17784439e-05, 6.00660769e-06, 6.93522634e-06,
          4.62889238e-06, 3.39169264e-06, 2.95290215e-06, 2.81173561e-06,
          1.55590806e-05, 1.28633192e-05, 1.39517097e-05, 1.6194952e-05,
          1.59142201e-05, 1.64377234e-05, 1.13359229e-05, 1.20752593e-05,
          1.28576012e-05, 6.75010688e-06, 6.84427187e-06, 8.15044223e-06,
          5.06903052e-06, 4.79126766e-06, 7.48766843e-06,
          -4.30074624e-06, -3.50976416e-06, 1.71571571e-07,
          -4.29161719e-06, -2.73045089e-06, 1.23348843e-06,
          5.58732881e-06, 7.69136568e-06, 1.32873665e-05, 6.15923227e-06,
          7.9511492e-06, 1.26107752e-05, -6.45565842e-06,
          -5.64757283e-06, -1.08937957e-06, -3.23271001e-06,
          -1.07014216e-06, 1.09238874e-06, -1.77720949e-06,
          1.88316312e-06, 4.38501729e-06, -4.8122788e-06,
          -8.05306911e-07, 4.13887528e-06, -1.08281884e-05,
          -4.1809767e-06, 4.43291856e-06, -1.86195175e-05,
          -1.09886732e-05, -4.57072974e-06, -2.67569158e-06,
          3.47328842e-06, 1.21818202e-05, 6.73893919e-06, 1.27571666e-05,
          2.05249271e-05, 2.90838288e-05, 3.34131473e-05, 3.82028447e-05,
          3.13172495e-05, 3.46985144e-05, 3.78024233e-05, 2.02641877e-05,
          2.11705756e-05, 2.51176898e-05, 2.03891159e-05, 2.02099109e-05,
          2.19226222e-05, 1.5742351e-05, 1.56549195e-05, 1.91148629e-05,
          7.98285146e-06, 8.58062413e-06, 9.5542955e-06, 3.74260298e-06,
          2.5447639e-06, 5.24356892e-06, -1.14084935e-06, 2.10236905e-07,
          3.03462639e-06, -5.46813453e-06, -4.59400053e-06,
          2.97929932e-06, -5.14364865e-06, -3.73727812e-06,
          -1.35737162e-06, 1.5539239e-05, 1.2591463e-05, 1.14804752e-05,
          2.1325834e-06, -5.71011299e-07, -2.693954e-06, 5.36047992e-06,
          5.32816512e-06, 7.93789923e-07, 6.52943027e-06, 4.52019594e-06,
          1.79447807e-06, 6.97698579e-06, 2.80855875e-06, 8.69086307e-07,
          7.69939197e-06, 3.61557863e-06, -8.13037445e-07,
          4.58291652e-06, -5.67931693e-07, -3.1245454e-06,
          8.20232435e-06, 1.10415192e-06, -5.21594893e-06,
          6.50647007e-06, -8.2720112e-07, -5.43540409e-06,
          -2.04054049e-06, -9.06355399e-06, -1.30555181e-05,
          3.28295891e-06, -3.98313477e-06, -9.44131352e-06,
          4.11212568e-06, -5.55637541e-07, -5.22258733e-06,
          7.51375592e-06, 1.43287014e-06, -5.69894019e-06,
          1.04280639e-06, -3.1386312e-06, -8.60151067e-06,
          6.16824354e-06, 2.15123848e-07, -5.15189822e-06,
          6.51447726e-06, -6.7823504e-07, -6.05182549e-06,
          -2.39303017e-06, -8.67624749e-06, -1.22049378e-05,
          4.99615589e-06, -1.40804059e-06, -5.5628534e-06,
          -3.63683455e-07, -4.72747161e-06, -1.02199701e-05,
          5.04626223e-06, -9.00554937e-07, -3.57241061e-06,
          2.20225252e-06, -1.55163161e-06, -6.23739652e-06,
          3.47487514e-07, -5.99992472e-06, -8.00423732e-06,
          1.88794695e-06, -2.57999659e-06, -6.18901959e-06,
          3.71793999e-06, -3.81384268e-07, -3.64782909e-06,
          4.07673406e-06, -1.16719764e-06, -5.22501159e-06,
          7.74246018e-06, 8.55769372e-07, -2.92652817e-06,
          4.42707733e-06, -2.51880942e-06, -4.47156481e-06,
          6.60740579e-06, 2.93461335e-06, 8.41612859e-07, 1.1927259e-05,
          7.78973117e-06, 4.5085244e-06, 1.09764533e-05, 8.10068013e-06,
          3.97501844e-06, 1.29833234e-05, 9.91613524e-06, 5.72788304e-06,
          1.55264988e-05, 1.11964146e-05, 7.29138492e-06, 1.74300167e-05,
          1.2048501e-05, 8.30422687e-06, 2.22853796e-05, 2.00948216e-05,
          1.65205474e-05, 6.84518091e-06, 6.46417675e-06, 4.8331658e-06,
          2.17757156e-06, 1.7473742e-06, 2.43567479e-06, 6.06225967e-06,
          4.72244528e-06, 1.99307101e-06, 8.0823429e-06, 7.39817369e-06,
          6.85648274e-06, 1.33440308e-05, 1.27754111e-05, 1.29667105e-05,
          6.97337964e-06, 6.87166539e-06, 8.62243087e-06, 1.1473564e-05,
          1.11056443e-05, 1.34568654e-05, 4.01296302e-06, 2.60315483e-06,
          7.40028736e-06, 1.2137067e-06, 2.03575541e-06, 4.75584466e-06,
          9.07354843e-06, 1.0411537e-05, 1.56803781e-05, 8.09393805e-06,
          1.11292093e-05, 1.59384053e-05, 9.20662023e-06, 1.08928052e-05,
          1.44913538e-05, -1.09725061e-05, -8.16275042e-06,
          -2.916629e-06, -7.39696634e-06, -5.58745614e-06,
          -1.09888583e-06, -6.70391137e-06, -3.5139351e-06,
          1.58773389e-06, -8.41871588e-06, -4.73801992e-06,
          3.50336268e-06, -1.22029169e-05, -6.95811605e-06,
          9.04385331e-07, -1.16580704e-05, -7.15040824e-06,
          9.19391852e-08, -7.62036143e-06, -5.86076965e-07,
          8.17260934e-06, -4.96533721e-06, 3.45355033e-06,
          1.31342185e-05, 1.3064584e-05, 1.97688587e-05, 2.71539684e-05,
          2.97101087e-05, 3.25832698e-05, 3.7416874e-05, 2.86215072e-05,
          2.97150964e-05, 3.44356122e-05, 2.28463723e-05, 2.38165085e-05,
          2.71737845e-05, 1.63431396e-05, 1.74581037e-05, 1.90832143e-05,
          7.86093278e-06, 8.04903993e-06, 1.04304327e-05, 4.87416264e-06,
          5.81104814e-06, 7.13702957e-06, -2.0812879e-06,
          -2.38633652e-06, 1.70231499e-06, 3.96722271e-06,
          2.31622266e-06, 6.18042168e-06, 7.36615902e-07, 2.9478856e-06,
          5.99532405e-06, 6.44803276e-06, 6.72592796e-06, 7.85149678e-06,
          8.67384369e-06, 6.97278483e-06, 4.80721928e-06, 5.62645346e-06,
          2.19219692e-06, 7.58241299e-07, 2.6947896e-06, 9.01554188e-07,
          9.25432914e-07, 5.23849621e-06, 2.34323397e-06, 1.79157894e-06,
          5.07641789e-06, 3.33994581e-06, -1.84063401e-06,
          6.69044448e-06, 1.17641355e-06, -1.34557547e-06,
          2.95755353e-06, -3.55002362e-06, -6.25594885e-06,
          1.02981394e-05, 2.31370223e-06, -1.5747321e-06, 3.89886554e-06,
          -3.44465298e-06, -9.23795051e-06, 3.72512477e-06,
          -4.10968596e-06, -7.855072e-06, 6.93871243e-06, 3.9360458e-07,
          -6.36505956e-06, 7.24353686e-06, 8.07883509e-07,
          -6.05326932e-06, 3.86088323e-06, -3.55125053e-06,
          -8.65312359e-06, 7.62679156e-06, 1.44316687e-06,
          -1.3512921e-06, 3.88527542e-06, -2.6036862e-06,
          -7.79400852e-06, 2.8206789e-06, -2.65616177e-06,
          -9.05307843e-06, 3.3913368e-06, -2.6145226e-06,
          -7.73139254e-06, -1.68695885e-06, -6.08174651e-06,
          -1.12366442e-05, -1.4982204e-06, -5.03990532e-06,
          -9.04600438e-06, -1.86239788e-06, -5.70951761e-06,
          -9.80618188e-06, 3.91391359e-06, -5.53698158e-07,
          -5.46298043e-06, -4.43450631e-07, -4.2183101e-06,
          -7.83687301e-06, 4.82874748e-06, -3.96730485e-07,
          -4.6696432e-06, 5.0545932e-06, -6.82121481e-07,
          -4.22310859e-06, 6.67483619e-07, -3.42167891e-06,
          -8.43884209e-06, 1.55458183e-05, 7.35292952e-06,
          1.83927557e-06, 8.12852431e-06, 2.70106784e-06,
          -3.18208595e-06, 1.03435441e-05, 8.0220434e-06, 3.64042376e-06,
          1.27535413e-05, 9.17698344e-06, 4.98614372e-06, 1.19118113e-05,
          8.2323204e-06, 3.74704018e-06, 1.43947618e-05, 9.67983487e-06,
          5.6221852e-06, 2.10340677e-05, 1.92307616e-05, 1.49171092e-05,
          1.49923471e-05, 1.28281372e-05, 1.05055233e-05, 4.19044181e-06,
          3.43886927e-06, 2.36374126e-06, 2.17232537e-06, 1.77145159e-06,
          -2.11987469e-07, 9.42381121e-06, 9.12817814e-06,
          6.69566271e-06, 5.36784819e-06, 5.9523104e-06, 3.62869969e-06,
          6.98827716e-06, 7.89172918e-06, 8.1811686e-06, 6.69015935e-06,
          8.20078094e-06, 9.59476893e-06, 1.07496717e-05, 1.05338186e-05,
          1.16960937e-05, 1.18147791e-05, 1.27983194e-05, 1.6218517e-05,
          1.07532687e-05, 1.27849853e-05, 1.59703759e-05, 8.79803156e-06,
          1.07724227e-05, 1.50382994e-05, 5.04565378e-06, 8.87513488e-06,
          1.38312644e-05, 1.13511112e-06, 5.26372196e-06, 1.20056602e-05,
          -1.26634759e-05, -8.43065027e-06, -4.75825937e-06,
          -7.97352004e-06, -4.96775874e-06, -9.61474711e-07,
          -3.91736057e-06, 3.31683054e-07, 4.94157166e-06,
          -1.19777869e-05, -6.28029647e-06, -9.78206231e-07,
          -1.19369179e-05, -4.40027634e-06, 3.50059031e-06,
          -1.24581875e-05, -5.72089129e-06, 4.35714173e-06,
          -4.57406577e-06, 2.37778039e-07, 9.15921464e-06,
          2.74602303e-06, 8.48316995e-06, 2.07550711e-05, 8.39639961e-06,
          1.47034325e-05, 2.42372425e-05, 1.9704541e-05, 2.45591982e-05,
          3.16130754e-05, 2.48418928e-05, 2.60847119e-05, 3.13767378e-05,
          1.52181055e-05, 1.60942054e-05, 2.15619657e-05, 1.55644448e-05,
          1.81273717e-05, 1.97429854e-05, 9.36507422e-06, 1.19045844e-05,
          1.0764551e-05, 8.89467356e-06, 8.94705045e-06, 1.28064321e-05,
          1.06472726e-06, 1.37731706e-06, 6.25452003e-06, 4.09354016e-06,
          5.56201303e-06, 8.54461177e-06, 4.4878152e-06, 6.0323141e-06,
          8.1129574e-06, 1.14812465e-05, 9.89221826e-06, 1.18252692e-05,
          5.06221386e-06, 4.64769664e-06, 2.88541082e-06, 5.84825966e-06,
          3.78275331e-06, 3.03429897e-06, 3.97867552e-06,
          -4.30636469e-08, -1.21511573e-06, 4.87058151e-06,
          2.32069442e-06, 1.56067347e-06, 1.01945925e-05, 5.8241144e-06,
          4.2857896e-06, 9.10112249e-06, 5.58327656e-06, 5.14340354e-06,
          9.2098287e-07, -4.06882418e-06, -5.63246522e-06,
          6.15231556e-06, -1.08209554e-06, -5.11252438e-06,
          8.46044804e-06, -3.81593708e-07, -6.49670301e-06,
          4.22116545e-06, -4.09353379e-06, -9.9805593e-06,
          8.32229398e-06, 2.81339453e-07, -6.32059664e-06,
          9.22666914e-06, 2.65765198e-06, -2.4112901e-06, 4.73954515e-06,
          7.93165498e-08, -6.02636737e-06, 6.59213492e-06,
          -1.94840277e-06, -6.37042331e-06, 1.86864679e-06,
          -3.8545204e-06, -9.56849544e-06, 1.90921651e-06,
          -5.96615928e-06, -1.09248958e-05, 7.01842737e-07,
          -4.46360355e-06, -9.5452333e-06, -1.84169733e-06,
          -8.2954848e-06, -1.23548161e-05, -9.06095408e-07,
          -6.97110181e-06, -1.00943998e-05, -7.84127167e-07,
          -5.42683392e-06, -1.06023099e-05, 1.25557801e-06,
          -3.86425563e-06, -7.63603475e-06, 2.33775495e-06,
          -3.00426655e-06, -5.9102922e-06, 6.71942325e-06,
          -4.34961265e-07, -3.57395925e-06, 6.73071327e-07,
          -4.5807592e-06, -7.77603236e-06, 3.26200848e-06,
          -2.12453051e-06, -6.41234146e-06, 7.70054248e-06,
          2.72197099e-06, -5.84836869e-07, 1.0847094e-05, 6.16589705e-06,
          7.6494581e-07, 8.82228778e-06, 5.48016533e-06, 1.87965077e-06,
          1.08287868e-05, 5.8124042e-06, 2.02099613e-06, 1.07545266e-05,
          7.04555714e-06, 2.92348682e-06, 1.2341925e-05, 7.8834064e-06,
          4.46683771e-06, 1.84907203e-05, 1.604524e-05, 1.21662115e-05,
          4.56945918e-06, 2.52136783e-06, 7.30807983e-07, 1.87290209e-06,
          1.00225759e-06, 6.52370261e-07, 5.11129747e-06, 3.79265111e-06,
          2.30470164e-06, 2.11459337e-06, 1.48512447e-06, 5.52916504e-07,
          2.42563669e-06, 3.57610293e-06, 3.44687646e-06, 5.88309831e-06,
          6.1437795e-06, 7.68710288e-06, 1.00010757e-05, 1.03646034e-05,
          1.3615333e-05, 7.57208591e-06, 1.00805746e-05, 1.2857824e-05,
          1.66875434e-05, 1.71840002e-05, 1.99525584e-05, 1.2316611e-05,
          1.4089529e-05, 1.73511562e-05, 1.11364034e-05, 1.37356765e-05,
          1.96586643e-05, 1.25266879e-05, 1.55873877e-05, 1.86873622e-05,
          2.47987236e-06, 6.21569325e-06, 1.1980379e-05, -3.88391845e-06,
          2.60749431e-07, 5.30672423e-06, -1.22332779e-06, 1.0660915e-07,
          4.6254986e-06, -1.95908137e-06, 2.55054442e-06, 9.35401931e-06,
          -1.15408166e-05, -6.38884421e-06, 2.41397152e-06,
          -1.41777509e-05, -6.26235214e-06, 3.2362052e-06,
          -3.37797815e-06, 2.36832989e-06, 1.21254097e-05,
          2.02693263e-06, 5.95984875e-06, 1.66247246e-05, 3.44953219e-06,
          1.0005464e-05, 2.165558e-05, 5.1668012e-06, 1.21401135e-05,
          2.25315671e-05, 7.85416341e-06, 1.38730466e-05, 2.27467171e-05,
          1.07661162e-05, 1.36765038e-05, 1.75610458e-05, 1.03382717e-05,
          1.19309043e-05, 1.84400888e-05, 9.13980693e-06, 1.15649063e-05,
          1.59721676e-05, 6.75176852e-06, 6.03129547e-06, 9.72775979e-06,
          9.3898791e-07, 1.42400438e-06, 5.31394835e-06, -7.71795567e-06,
          -7.61254432e-06, -3.67037092e-06, -5.25327266e-07,
          3.93687998e-08, 8.59246597e-07, 1.35932778e-05, 1.4086967e-05,
          1.92568641e-05, 1.40522088e-05, 1.3239227e-05, 1.51861977e-05,
          8.27157965e-06, 8.50064316e-06, 6.08624214e-06, 8.34593993e-06,
          3.54309054e-06, 2.86995873e-06, 6.46477156e-06, 3.80003576e-06,
          2.64586447e-06, 5.64212723e-06, 1.07088351e-06,
          -2.67945552e-07, 9.69813664e-06, 3.26205804e-06,
          2.55328882e-06, 5.24319785e-06, -1.95219656e-07,
          -3.16768637e-06, 2.63341644e-06, 1.26644991e-07,
          -2.15731416e-06, 9.33770207e-06, 3.23840754e-06,
          -8.76742433e-07, -8.53651045e-07, -8.44013357e-06,
          -1.3422964e-05, 3.10827932e-06, -4.68421013e-06,
          -9.96032759e-06, 8.86538692e-06, 1.47102605e-06,
          -2.56276985e-06, 6.55013901e-06, -1.01645226e-08,
          -2.9574569e-06, 2.10087137e-07, -6.96169991e-06,
          -1.04129458e-05, 4.18374611e-06, -1.57690602e-06,
          -5.75680815e-06, 1.67433723e-06, -5.19458308e-06,
          -1.05843164e-05, 1.30485694e-06, -4.84754901e-06,
          -9.68378754e-06, -5.50396294e-07, -5.83109704e-06,
          -1.08134591e-05, -2.21162895e-06, -7.39191819e-06,
          -1.26127934e-05, -2.73823207e-06, -7.16514887e-06,
          -1.36203207e-05, -5.31596515e-06, -8.22835591e-06,
          -1.24957141e-05, -9.36968445e-06, -1.13983624e-05,
          -1.62726228e-05, -1.13719932e-06, -5.31094247e-06,
          -9.83197788e-06, 1.70028829e-06, -2.4222395e-06,
          -5.57264593e-06, -2.20248285e-06, -4.76698369e-06,
          -6.73978866e-06, 4.96197686e-07, -5.35787467e-06,
          -8.68637562e-06, 3.02049307e-06, -2.34120444e-06,
          -4.63156448e-06, 7.3568317e-06, 3.51264407e-06,
          -3.49668909e-07, 8.56748647e-06, 4.74830949e-06,
          7.17487353e-07, 8.97591781e-06, 5.07129562e-06, 9.21832509e-07,
          8.30329282e-06, 5.52555866e-06, 1.27778458e-06, 9.60129364e-06,
          7.3953579e-06, 2.19120784e-06, 1.31434062e-05, 1.1534401e-05,
          8.00707767e-06, 2.77760978e-06, 1.42993463e-06,
          -7.08568109e-07, 1.57796512e-06, 1.41942439e-06,
          -1.24747805e-06, -8.54289908e-07, -9.92832611e-07,
          -2.02717001e-06, 5.46879892e-06, 3.32855871e-06,
          2.05091897e-06, 3.88777698e-06, 4.48295441e-06, 4.77554795e-06,
          6.92482035e-06, 6.71793441e-06, 7.79703623e-06, 6.19308503e-06,
          8.07982178e-06, 8.80895732e-06, 8.54772679e-06, 9.95567916e-06,
          1.12895996e-05, 1.48921135e-05, 1.64828289e-05, 1.8827297e-05,
          1.05217887e-05, 1.45392269e-05, 1.87295173e-05, 8.36215077e-06,
          1.35212076e-05, 1.68624429e-05, 9.3812173e-07, 4.93390507e-06,
          9.19704235e-06, -1.82577992e-06, 3.10336486e-06,
          8.04214596e-06, -1.16028059e-06, 4.1816761e-06, 1.06642892e-05,
          -8.24237941e-06, -4.50186826e-06, 3.06371794e-06,
          -1.07250389e-05, -5.68689893e-06, 2.2044926e-06,
          -7.38536482e-06, -3.00944157e-06, 4.22182165e-06,
          -6.92769572e-06, -1.0302507e-06, 8.20875448e-06,
          -8.21499179e-06, -8.43782232e-07, 1.06334801e-05,
          3.13503961e-06, 8.99179577e-06, 1.81844225e-05,
          -1.01004252e-06, 6.83739609e-06, 1.97215413e-05,
          -1.04850074e-06, 5.71439796e-06, 1.73478165e-05,
          1.46080974e-05, 1.8157114e-05, 2.88731335e-05, 1.47774708e-05,
          1.82297263e-05, 2.29219768e-05, 1.5246821e-05, 1.56620536e-05,
          2.16810913e-05, 6.4935125e-06, 9.81836911e-06, 1.63678033e-05,
          4.51562528e-06, 4.35112042e-06, 9.17296711e-06, 3.37620008e-06,
          4.99516955e-06, 9.33822867e-06, -3.11330177e-06,
          -2.1595838e-06, 1.46517721e-06, 2.49183904e-06, 2.3342775e-06,
          3.85294788e-06, 1.42499393e-05, 1.45746317e-05, 1.57567865e-05,
          2.04195076e-05, 2.0110434e-05, 2.058678e-05, 8.09930498e-06,
          5.74536398e-06, 3.12740849e-06, 1.19308488e-05, 7.67089568e-06,
          6.12543727e-06, 1.02819258e-05, 6.84406768e-06, 7.27215365e-06,
          6.18568583e-06, 2.26986231e-06, 5.32308889e-07, 7.16829527e-06,
          4.24945392e-06, 3.17821969e-06, 7.16524983e-06, 3.05513186e-06,
          1.129579e-06, 3.60140825e-06, 1.05630318e-06, -7.94771154e-07,
          3.03008392e-06, -3.36663533e-07, -4.48259743e-06,
          4.99272437e-06, -2.33605829e-06, -7.4435402e-06,
          5.03831279e-06, -2.90958019e-06, -6.28524913e-06,
          6.70445615e-06, -9.61516548e-07, -5.32413151e-06,
          9.85649513e-06, 2.15875752e-06, -3.28325814e-06,
          5.55350607e-06, -1.50731705e-06, -7.30526335e-06,
          5.45342618e-06, 5.51540779e-07, -3.79243079e-06,
          -1.76798335e-06, -8.39256245e-06, -1.2688125e-05,
          3.06090601e-06, -1.92781499e-06, -7.81081781e-06,
          -2.11256815e-06, -6.59035186e-06, -1.08493023e-05,
          -1.81841881e-06, -6.65592734e-06, -1.16224874e-05,
          -4.43405042e-06, -1.02962422e-05, -1.28470137e-05,
          -2.98618534e-06, -7.78366575e-06, -1.17961818e-05,
          -2.81768598e-06, -5.97443113e-06, -1.16418587e-05,
          -3.40860947e-06, -5.79325388e-06, -9.33010051e-06,
          -1.3095314e-06, -3.46060483e-06, -6.2949739e-06,
          1.28351223e-06, -4.13469115e-06, -8.39291624e-06,
          -2.33939318e-06, -5.62370087e-06, -8.19742309e-06,
          9.98856831e-06, 2.95803875e-06, -3.04143532e-06, 4.3594423e-06,
          1.36517463e-06, -3.92328366e-06, 6.01874353e-06,
          1.43170257e-06, -2.78006542e-06, 8.03537569e-06,
          3.23841027e-06, 1.4100705e-07, 7.15355827e-06, 3.48813182e-06,
          -1.18602645e-06, 1.20012519e-05, 9.25630684e-06,
          5.38335462e-06, 1.15254006e-05, 8.10971596e-06, 4.3689206e-06,
          6.85504688e-07, -4.27370651e-07, -2.96645339e-06,
          9.72861926e-06, 8.6920727e-06, 6.44071724e-06, 4.86493263e-06,
          4.23260099e-06, 3.06107063e-06, 2.1545186e-06, 1.81141013e-06,
          2.21459823e-06, 2.11758334e-06, 3.13515034e-06, 2.0123764e-06,
          4.68413191e-06, 6.04947491e-06, 7.82687221e-06, 8.59308875e-06,
          9.28002009e-06, 1.05017489e-05, 1.15775056e-05, 1.23825648e-05,
          1.57975373e-05, 8.77443654e-06, 1.13239539e-05, 1.6680855e-05,
          2.68391818e-06, 3.85758949e-06, 9.75490184e-06,
          -3.42059934e-06, -1.68807946e-06, 4.84179554e-06,
          -1.45333934e-06, 1.31918068e-06, 4.80267272e-06,
          4.35193499e-07, 3.77105766e-06, 1.02952399e-05,
          -1.19422498e-06, 3.01965406e-06, 1.12034249e-05,
          -2.92267237e-06, 2.30959836e-06, 9.14704106e-06,
          -8.93433298e-06, -5.12274755e-06, 2.9486921e-06,
          -8.43154703e-06, -3.23684503e-06, 2.97415386e-06,
          -6.02321006e-06, 3.89684431e-07, 1.03037237e-05,
          -1.19800939e-06, 5.48385378e-06, 1.68909446e-05,
          -3.33102975e-07, 4.97616247e-06, 1.64348221e-05,
          2.41795669e-06, 9.21907395e-06, 2.12875639e-05, 2.99812518e-06,
          8.99731094e-06, 2.24034284e-05, 1.24294429e-05, 1.67362905e-05,
          2.64476075e-05, 1.5314039e-05, 1.82974727e-05, 2.58613018e-05,
          9.97092593e-06, 1.1199174e-05, 1.63290497e-05, 6.76576201e-06,
          8.70677741e-06, 1.6018068e-05, -1.77474135e-06,
          -4.09094042e-07, 5.62617333e-06, 3.14011373e-07,
          1.60160948e-06, 7.61683532e-06, 2.13152384e-06, 2.75069328e-06,
          6.54262112e-06, -1.65502934e-06, -2.84583325e-06,
          4.7921003e-06, 2.71209319e-06, 4.89533295e-06, 7.40981704e-06,
          1.66267091e-05, 1.69364121e-05, 2.07915818e-05, 7.57195858e-06,
          6.04271054e-06, 5.42364296e-06, 8.82063796e-06, 5.40058682e-06,
          3.46739853e-06, 9.14095779e-07, 4.71402899e-07, -1.5209697e-06,
          1.49955486e-05, 9.05643083e-06, 9.31090472e-06, 5.1381794e-06,
          2.14233387e-06, 4.08166585e-07, 1.34578568e-05, 9.1480706e-06,
          7.71403484e-06, 7.94217158e-06, 4.14209171e-06, 1.71715635e-06,
          -1.25908412e-06, -4.69817587e-06, -5.86017859e-06,
          1.20165023e-05, 3.92320544e-06, -2.67588803e-06,
          9.00791008e-07, -5.03073989e-06, -9.65591789e-06,
          6.31362036e-06, 1.00087163e-06, -4.85802184e-06,
          1.09092771e-05, 3.13767418e-06, -2.3468051e-06, 9.72686848e-07,
          -4.09646645e-06, -1.05777071e-05, 2.21672622e-07,
          -2.78690868e-06, -8.81356846e-06, -2.89937452e-06,
          -6.63243645e-06, -1.16947094e-05, 1.57774343e-06,
          -5.7619277e-06, -9.94647598e-06, -1.08955192e-06,
          -6.4957967e-06, -9.93835965e-06, -2.10835722e-07,
          -4.63711513e-06, -9.37836467e-06, -3.78418963e-06,
          -9.75888997e-06, -1.37139359e-05, -8.02091199e-06,
          -1.02126633e-05, -1.3322704e-05, -9.52845403e-06,
          -1.35337341e-05, -1.57320537e-05, -7.20751132e-07,
          -4.57116221e-06, -8.47243791e-06, -4.55405507e-06,
          -7.70355655e-06, -8.75435035e-06, -6.16552782e-08,
          -4.22371249e-06, -4.70944633e-06, -4.82266785e-07,
          -3.67616349e-06, -6.55050917e-06, 2.8361253e-06,
          -2.08975777e-07, -6.53558891e-06, 2.31112494e-06,
          -2.61956575e-06, -6.90794468e-06, 1.75991931e-06,
          -2.38764119e-06, -8.7098706e-06, 2.21873438e-06,
          -1.3214991e-06, -6.78843526e-06, 3.5339292e-06, 7.08685036e-07,
          -3.53991641e-06, 8.238394e-06, 6.64227809e-06, 3.07910295e-06,
          5.3347901e-07, -1.08567087e-06, -3.25626661e-06,
          -5.50250832e-07, -1.06177129e-06, -2.18734067e-06,
          9.75508192e-06, 9.30270016e-06, 7.18869205e-06, 3.5970304e-06,
          2.03131503e-06, 1.36606536e-06, 2.14454144e-06, 1.29646071e-06,
          2.20724291e-06, -2.41481257e-06, -1.47607443e-06,
          -5.27855491e-07, 1.92897028e-06, 1.72913462e-06,
          3.25990845e-06, 3.29066188e-06, 3.42724115e-06, 6.32719275e-06,
          7.50688605e-06, 9.28554982e-06, 1.2519351e-05, 9.39310894e-07,
          4.23069878e-06, 9.35243497e-06, -7.66483572e-06,
          -3.64519883e-06, 4.72131347e-07, -3.04181958e-06,
          -2.24851624e-06, 1.57992065e-06, -4.67816426e-06,
          -1.72057491e-06, 2.5500633e-06, -2.67841983e-06,
          3.40797101e-07, 6.19715547e-06, -5.24713141e-06,
          -1.20228933e-07, 7.36802804e-06, -5.88000546e-07,
          4.5575448e-06, 9.978864e-06, -1.98742487e-06, 3.48937283e-06,
          1.02472995e-05, -2.57930128e-06, 2.21390792e-06,
          1.02680824e-05, -2.02316824e-06, 2.55371037e-06,
          1.11549261e-05, -1.30342471e-06, 6.27050485e-06, 1.8343253e-05,
          -9.00694886e-06, 1.03685105e-08, 1.41193659e-05,
          -2.79121923e-06, 7.14051339e-06, 2.55980121e-05,
          -1.04738165e-05, 3.29700924e-06, 2.1921398e-05,
          -8.21522099e-06, 3.90141304e-06, 1.95023258e-05,
          2.47371645e-06, 9.05978595e-06, 2.21336832e-05,
          -7.64735796e-06, -2.36095457e-06, 6.49156573e-06,
          -4.74613398e-06, -7.33232866e-07, 7.17403054e-06,
          -3.87343289e-06, 1.84710814e-07, 7.41758504e-06,
          4.46262311e-06, 6.01405327e-06, 1.06422449e-05, 3.24879306e-06,
          1.05629374e-06, 5.98925772e-06, 7.90546267e-07, 7.28725638e-07,
          4.33571449e-06, 1.02073336e-05, 1.15810926e-05, 1.68803181e-05,
          1.97587997e-05, 1.65867932e-05, 2.14543143e-05, 5.79556263e-06,
          4.97225801e-06, 5.00661281e-06, 8.83374469e-06, 6.27348254e-06,
          3.44174168e-06, 1.0270006e-05, 6.44329202e-06, 1.28384625e-06,
          7.66336234e-06, 5.32297236e-06, 3.93805931e-06, 1.17621476e-05,
          9.20892944e-06, 6.64406843e-06, 1.31556571e-05, 9.61788555e-06,
          6.95108974e-06, 1.22302199e-05, 5.66761355e-06, 2.51812708e-06,
          2.88098909e-06, -1.72818034e-07, -1.87359831e-06,
          3.86639476e-06, -2.7756696e-06, -7.39982534e-06,
          5.21562743e-06, -3.20359891e-06, -7.58943906e-06,
          1.06766047e-05, 2.8380116e-06, -3.67793359e-06, 5.91599837e-06,
          -9.11227687e-07, -5.18205798e-06, -2.856847e-06,
          -1.04579758e-05, -1.29721802e-05, 3.49188895e-06,
          -1.49860819e-06, -5.09835127e-06, 7.37505843e-07,
          -6.94905384e-06, -1.21488274e-05, -8.59477609e-07,
          -7.84670647e-06, -1.38771366e-05, 2.50932453e-06,
          -4.02993282e-06, -9.26274879e-06, -6.87605677e-07,
          -5.47350737e-06, -1.03458869e-05, -5.22297296e-06,
          -9.50711546e-06, -1.27553512e-05, -3.13591477e-06,
          -8.53650999e-06, -1.22326664e-05, -4.06769277e-06,
          -8.60374712e-06, -1.14752056e-05, -2.38661573e-06,
          -6.93712536e-06, -9.01266321e-06, 5.46763886e-07,
          -4.69118004e-06, -6.53150164e-06, -7.56541318e-09,
          -4.53776011e-06, -7.29246403e-06, -1.52004714e-06,
          -4.30514456e-06, -7.02757779e-06, 3.62297868e-07,
          -2.50912899e-06, -7.10370205e-06, 2.55030704e-06,
          -2.79402616e-06, -6.68820485e-06, 1.64318249e-06,
          -2.53128815e-06, -7.70534098e-06, -2.19482195e-06,
          -6.5466088e-06, -1.16386973e-05, 1.27011174e-06,
          -2.32557386e-06, -5.88718785e-06, 1.07000642e-05,
          6.75765523e-06, 3.40026668e-06, -1.44090382e-06,
          -2.90608227e-06, -5.9799645e-06, -2.87825355e-06,
          -2.68618123e-06, -3.86537477e-06, 7.47449758e-06,
          7.0477081e-06, 5.53780137e-06, -2.05666083e-07,
          -1.08332677e-06, -9.36079459e-07, -1.45931847e-06,
          -2.54917268e-06, -2.01696048e-06, -2.63899096e-06,
          -2.08567326e-06, -4.5396061e-07, -1.20444588e-06,
          7.8228328e-07, 3.7990178e-06, 3.65951882e-06, 4.84315433e-06,
          7.62324498e-06, 1.70388978e-06, 5.16194177e-06, 8.04509182e-06,
          4.86002091e-06, 6.89662829e-06, 1.02472422e-05,
          -5.04982381e-06, -1.20701623e-06, 4.50593734e-06,
          6.78221738e-07, 1.85638658e-06, 6.41678162e-06,
          -2.16404246e-07, 6.99823545e-07, 6.05664218e-06,
          -3.16786077e-06, 1.24919245e-06, 8.5408974e-06, 2.50874928e-06,
          6.65942707e-06, 1.24106173e-05, 4.07932566e-06, 8.55704457e-06,
          1.34142665e-05, 1.3655827e-07, 4.87065154e-06, 1.25016932e-05,
          -7.99238478e-06, -1.85558486e-06, 6.26463861e-06,
          -8.24183371e-06, -7.37956384e-07, 9.3616809e-06,
          -1.64404755e-05, -5.17765739e-06, 1.0907459e-05,
          -1.59474221e-05, -4.06745812e-06, 1.35534501e-05,
          -7.5239459e-06, 6.02624232e-06, 2.65531417e-05,
          -1.62486576e-05, -2.37286781e-06, 1.86980669e-05,
          -9.37280311e-06, 2.05118317e-06, 2.01665807e-05,
          -5.60671924e-06, 4.3886871e-06, 1.77148813e-05, -1.4451738e-05,
          -8.04400497e-06, 3.86051852e-06, -1.44979585e-05,
          -8.52559788e-06, 2.49772688e-06, -1.39132135e-05,
          -1.07509341e-05, -6.23233291e-07, 2.44473358e-06,
          4.65213543e-06, 9.70121891e-06, 5.53764357e-06, 6.68290795e-06,
          1.14595796e-05, -4.38905772e-06, -3.74236834e-06,
          -5.36124503e-07, 9.95449864e-06, 1.13723509e-05,
          1.51385739e-05, 1.12767138e-05, 1.29903301e-05, 1.5119138e-05,
          1.22811771e-05, 1.23329055e-05, 1.31578363e-05, 4.22001131e-06,
          1.51723486e-06, 2.72814844e-07, 7.82000006e-06, 5.20943604e-06,
          4.99780617e-06, 1.16956662e-05, 6.81680785e-06, 6.75055162e-06,
          1.46743623e-05, 1.04699848e-05, 6.75728597e-06, 7.25366226e-06,
          1.99728356e-06, -1.64180932e-07, 8.51826644e-06,
          4.74394346e-06, -5.81183713e-07, 1.76877947e-07,
          -4.46066088e-06, -4.5564484e-06, 9.36041761e-06,
          4.75108345e-06, 1.30794194e-06, 3.32002878e-06,
          -1.91000208e-06, -7.03497335e-06, 9.05358047e-06,
          1.41513488e-06, -4.18612353e-06, 6.22673952e-06,
          -1.12864177e-06, -5.9416393e-06, 9.90887315e-07,
          -4.14832994e-06, -7.74954333e-06, 5.3425656e-06,
          -1.93485948e-06, -7.19661739e-06, 2.416504e-06,
          -3.52888128e-06, -9.54991901e-06, -1.84181033e-06,
          -9.84459439e-06, -1.47819574e-05, 1.01982403e-06,
          -5.57370549e-06, -1.07152782e-05, 7.56239388e-07,
          -4.45446676e-06, -9.20603816e-06, -1.13763213e-06,
          -8.56267161e-06, -1.22448773e-05, -4.3590635e-06,
          -8.17982618e-06, -1.3357052e-05, -5.45493185e-06,
          -8.2190636e-06, -1.30096241e-05, -2.69644124e-06,
          -6.07596257e-06, -8.6721584e-06, -1.26050406e-06,
          -3.88022136e-06, -6.48677951e-06, -1.60030504e-06,
          -3.49348375e-06, -5.51909488e-06, -4.6802532e-07,
          -4.18076206e-06, -5.5682799e-06, 2.29894817e-06,
          -2.23833513e-06, -6.85629402e-06, 1.87022385e-06,
          -2.76793071e-06, -7.81741255e-06, 1.29170689e-06,
          -2.96697158e-06, -7.28448686e-06, 1.19925676e-06,
          -2.82032602e-06, -6.74399143e-06, -4.48835954e-06,
          -8.80485368e-06, -1.24454664e-05, 9.00474424e-06,
          6.5221011e-06, 1.85881879e-06, -1.55987573e-06,
          -2.77853383e-06, -5.937884e-06, -5.95899201e-06,
          -5.63271396e-06, -6.04412116e-06, 5.20264166e-07,
          -9.6247777e-07, -2.69539623e-06, -1.5412204e-06,
          -1.59586432e-06, -1.34292213e-06, -2.43525074e-06,
          -3.38455652e-06, -2.89444483e-06, 1.74612603e-06,
          1.74278091e-06, 3.20007507e-06, 3.76070057e-06, 5.24568532e-06,
          6.50018364e-06, 8.71286193e-06, 9.46230557e-06, 9.97251209e-06,
          9.37620644e-06, 1.14000995e-05, 1.34377506e-05, 9.81747507e-06,
          1.17555392e-05, 1.53950823e-05, 5.01141415e-07, 3.88011313e-06,
          8.17694945e-06, 1.59046851e-06, 4.66528945e-06, 8.70159874e-06,
          -2.07209246e-06, 1.69860868e-06, 5.07645791e-06,
          -1.31414038e-06, 1.33403375e-06, 8.40343546e-06,
          -7.82463985e-07, 3.42737121e-06, 9.64659648e-06, 5.0348749e-06,
          8.40182565e-06, 1.43560801e-05, -1.17841737e-05,
          -3.2730668e-06, 5.35657409e-06, -1.00747247e-05,
          -2.79823757e-06, 7.09811775e-06, -1.09204448e-05,
          -1.20438108e-06, 8.54663267e-06, -1.43496027e-05,
          -3.61563889e-06, 1.34909933e-05, -1.44855139e-05,
          -4.28913336e-06, 1.3040888e-05, -1.16848842e-05,
          1.18897663e-06, 2.19378617e-05, -1.75558544e-05,
          -3.03825277e-06, 1.66182945e-05, -1.68248171e-05,
          -4.25853113e-06, 1.39265439e-05, -8.15782823e-06,
          4.70512418e-07, 1.55419093e-05, -2.46941654e-05,
          -1.6390477e-05, -1.79994936e-06, -2.19363919e-05,
          -1.51963923e-05, -6.00771045e-07, -1.62461984e-05,
          -1.09126031e-05, -1.37512848e-06, -1.07001124e-05,
          -4.78816764e-06, 4.2290585e-06, 8.65606489e-06, 1.16207839e-05,
          1.64641297e-05, -1.38242103e-06, -6.50312359e-07,
          2.84279804e-06, 1.54450809e-05, 1.40704788e-05, 1.95798857e-05,
          1.31060788e-05, 1.42768158e-05, 1.54949194e-05, 9.59461067e-06,
          8.44516762e-06, 1.0989088e-05, 1.5885571e-05, 1.20936984e-05,
          1.17889276e-05, 8.38783944e-06, 6.59176294e-06, 5.80946835e-06,
          1.12786329e-05, 1.04727296e-05, 8.40356915e-06, 6.1246219e-06,
          4.06455592e-06, 1.43122702e-06, 1.02633194e-05, 7.74109776e-06,
          5.76690854e-06, 9.9287372e-06, 4.11788551e-06, 3.63471509e-06,
          4.03264721e-06, -8.71419218e-07, -1.76667345e-06,
          5.21114544e-06, 6.63881394e-07, -3.2962912e-06, 6.5858635e-06,
          -2.68929711e-07, -5.77249148e-06, 1.04792946e-06,
          -5.14618023e-06, -9.87535896e-06, 7.03891328e-06,
          1.82084329e-06, -6.38264237e-06, -3.79219682e-06,
          -1.06240122e-05, -1.5878386e-05, 5.44120724e-07,
          -3.80955498e-06, -8.39596032e-06, -5.73003126e-06,
          -1.03232032e-05, -1.41017726e-05, -1.34212121e-06,
          -7.8448802e-06, -1.16513738e-05, 1.76118624e-06,
          -3.49555353e-06, -1.00303405e-05, -1.15623118e-06,
          -5.67383768e-06, -1.074584e-05, -6.77505659e-06,
          -1.02142421e-05, -1.43630195e-05, -3.19579414e-07,
          -5.09931897e-06, -8.60327509e-06, -4.95693348e-06,
          -8.58104249e-06, -1.0581547e-05, -3.5081398e-06,
          -6.64976687e-06, -1.23869086e-05, -2.85806095e-06,
          -6.28087946e-06, -1.08629974e-05, 4.02108981e-07,
          -3.99636656e-06, -6.83412691e-06, 2.19332901e-06,
          -3.79465405e-06, -5.44974318e-06, -1.40386214e-06,
          -5.7862444e-06, -9.4859015e-06, -1.98146608e-06,
          -6.25219354e-06, -1.08591612e-05, -1.30888998e-06,
          -5.30415446e-06, -8.28417069e-06, 6.7850965e-07,
          -2.55877603e-06, -7.02254329e-06, -1.1615457e-06,
          -4.54067504e-06, -9.80043569e-06, 8.64370668e-06,
          5.87570912e-06, 1.79982328e-06, -7.18606452e-06,
          -8.89080093e-06, -1.04249721e-05, -8.42207737e-06,
          -8.07629931e-06, -8.63998412e-06, -5.37682922e-07,
          -1.02398292e-06, -1.77084291e-06, -2.35855555e-06,
          -1.46384184e-06, -1.64197149e-06, -1.27776616e-06,
          -1.07315407e-06, -5.11365556e-07, 2.51937831e-06,
          3.0928727e-06, 2.72517809e-06, 1.34769186e-06, 2.16609305e-06,
          3.77733159e-06, 4.69701081e-06, 5.40768451e-06, 6.38737856e-06,
          8.70453096e-06, 1.09525845e-05, 1.20789673e-05, 9.43951727e-06,
          1.17351574e-05, 1.45748345e-05, 2.91851688e-06, 4.93596235e-06,
          8.70396707e-06, 2.52479526e-06, 5.49539254e-06, 1.10695973e-05,
          3.08447397e-06, 4.57731221e-06, 1.00974721e-05,
          -4.47533557e-06, 1.69266809e-06, 7.80280243e-06,
          -3.17979561e-06, 1.8504536e-06, 1.04839464e-05,
          -8.13670977e-06, -6.61290187e-07, 8.55752296e-06,
          -7.92067658e-06, -1.3208032e-08, 1.04794526e-05,
          -1.34796046e-05, -4.93499692e-06, 6.18125887e-06,
          -1.47408637e-05, -4.86921317e-06, 6.79777804e-06,
          -1.90451356e-05, -8.88112572e-06, 7.12845076e-06,
          -1.74625693e-05, -5.93051482e-06, 1.32005543e-05,
          -1.45591785e-05, -2.9725461e-06, 1.7410699e-05,
          -1.82396579e-05, -3.97234362e-06, 1.74035467e-05,
          -2.49093755e-05, -1.31404367e-05, 6.4356027e-06,
          -1.98036669e-05, -1.30323997e-05, 3.37293636e-06,
          -1.88235408e-05, -1.00314101e-05, 4.71655767e-06,
          -2.38645625e-05, -1.61738935e-05, -9.38536459e-07,
          -1.92723528e-05, -1.22945494e-05, -1.18015514e-07,
          -8.30067802e-06, -1.38718315e-06, 8.90737192e-06,
          -1.68477229e-07, 3.32053492e-06, 1.13223887e-05,
          3.94544168e-06, 7.04720287e-06, 1.10130786e-05, 8.33770719e-06,
          1.024829e-05, 1.33837229e-05, 9.64260289e-06, 1.05204654e-05,
          1.13998458e-05, 3.74505998e-06, 3.78921573e-06, 3.39990129e-06,
          5.31832939e-07, -1.13319857e-06, -1.40290467e-07,
          5.04578793e-06, 1.68352676e-06, -1.70202597e-07,
          7.63264325e-06, 6.06541835e-06, 2.76274841e-06, 7.40682572e-06,
          3.69790018e-06, 2.8887896e-06, -1.96233799e-07,
          -8.01440819e-07, -3.54969507e-06, 2.7903647e-07,
          -1.74973388e-06, -2.41133671e-06, 5.99347175e-07,
          -2.74049899e-06, -5.44173099e-06, 6.50394395e-06,
          1.57933556e-07, -1.20142283e-06, 7.79379752e-06,
          -1.13227986e-06, -5.03279443e-06, 9.89993896e-06,
          5.74149681e-07, -3.95229836e-06, 1.22353249e-05,
          4.19695425e-06, -2.5003867e-06, 2.58594537e-06, -4.4163794e-06,
          -9.26519442e-06, 9.41506369e-06, 5.16057207e-06,
          -2.92225479e-07, 6.01108923e-07, -5.8209971e-06,
          -1.00643538e-05, -3.09872394e-06, -7.62586296e-06,
          -1.14865597e-05, -2.90926209e-06, -8.37601783e-06,
          -1.28911133e-05, -8.77859566e-06, -1.03930352e-05,
          -1.28307356e-05, -7.9226993e-06, -1.23872751e-05,
          -1.55808029e-05, -5.13263694e-06, -9.14497923e-06,
          -1.3845387e-05, -2.63401216e-06, -6.96551706e-06,
          -1.03362345e-05, -5.36808011e-06, -9.98304768e-06,
          -1.36644958e-05, -5.46630145e-06, -7.90496415e-06,
          -1.32548821e-05, -5.06978813e-06, -8.61623721e-06,
          -1.07771812e-05, -1.13933356e-06, -4.18101854e-06,
          -6.37469338e-06, -3.34068727e-06, -6.79123059e-06,
          -8.99200313e-06, -2.2873628e-06, -6.0129446e-06,
          -9.70906967e-06, -1.19959259e-06, -4.91027185e-06,
          -8.97062728e-06, 1.54064503e-06, -2.56832868e-06,
          -5.86073475e-06, -2.06578079e-06, -5.94063977e-06,
          -1.02222402e-05, -3.17758008e-06, -4.657918e-06,
          -9.19030754e-06, -8.08359619e-06, -8.86792259e-06,
          -1.03844277e-05, -9.67798405e-06, -1.07430678e-05,
          -1.1648176e-05, -5.83239535e-06, -5.45425928e-06,
          -6.8659474e-06, -5.00653641e-07, -9.87230578e-07,
          -1.64868209e-06, 1.31326237e-06, 1.98474777e-06,
          -8.66462386e-08, -2.89718082e-06, -1.85960857e-06,
          -1.71110639e-06, 9.54972052e-07, 1.41788985e-06,
          1.23168786e-06, 3.71908618e-06, 4.76996456e-06, 7.51708239e-06,
          5.68775522e-06, 6.20232731e-06, 9.6701142e-06, 7.81799372e-06,
          9.74724026e-06, 1.21972635e-05, 5.7534744e-06, 7.15670058e-06,
          1.25029383e-05, -3.05275421e-06, -1.73392141e-06,
          1.3267254e-06, 5.21934737e-07, 3.47919172e-06, 7.85641441e-06,
          -5.39223129e-06, -2.60795247e-07, 7.01389081e-06,
          -1.5688709e-05, -7.03001069e-06, 3.94512381e-06,
          -7.7154873e-06, 4.76672938e-07, 1.115742e-05, -5.38847598e-06,
          2.0192258e-06, 1.47225419e-05, -1.56308561e-05, -5.520581e-06,
          8.29506826e-06, -1.32068308e-05, -3.81646805e-06,
          8.72273631e-06, -1.92326388e-05, -8.86431735e-06,
          7.29677959e-06, -2.01235998e-05, -7.08202606e-06,
          1.0390977e-05, -1.51877366e-05, -3.90495006e-06, 1.5169232e-05,
          -2.05644264e-05, -8.30544013e-06, 1.1747552e-05,
          -2.47002754e-05, -1.44209835e-05, 5.01644672e-06,
          -1.99133519e-05, -1.07588758e-05, 4.9307896e-06, -1.410193e-05,
          -6.890431e-06, 7.38122571e-06, -2.08708188e-05,
          -1.20027862e-05, 4.91710853e-06, -1.38548812e-05,
          -9.87069143e-06, 3.40956171e-06, -1.14316372e-05,
          -4.62935532e-06, 8.76059403e-06, -5.91308435e-06,
          -1.51880408e-06, 7.16637805e-06, -2.70287069e-06,
          -1.49284659e-07, 6.76730951e-06, 6.4771757e-06, 8.26293399e-06,
          1.44140531e-05, 1.46319453e-05, 1.45310496e-05, 1.61545522e-05,
          5.21250115e-07, 3.73714033e-06, 2.34983463e-06,
          -6.43144949e-06, -6.8588547e-06, -6.62826824e-06,
          1.17953414e-05, 7.37479331e-06, 7.81631843e-06, 5.80249571e-06,
          1.43051602e-06, 1.77205141e-06, 4.8240986e-06, 3.05575281e-06,
          1.18435366e-06, 1.17402842e-05, 8.75960814e-06, 6.94075061e-06,
          1.67981466e-06, -2.38722419e-06, -3.73117427e-06,
          3.44790942e-06, 7.64545518e-07, -1.55357316e-06,
          3.99163537e-06, 5.36561856e-07, -1.08867005e-06,
          8.29134115e-06, -7.44798399e-07, -3.32076934e-06,
          9.07529466e-06, 1.75555601e-06, -3.98234715e-06,
          3.22483925e-06, -2.42067176e-06, -6.75264164e-06,
          -7.39268171e-06, -1.26172135e-05, -1.69430623e-05,
          -5.21469929e-07, -5.01839986e-06, -1.1108461e-05,
          -1.57844079e-06, -4.47190723e-06, -1.19928245e-05,
          -2.90353478e-06, -7.10177756e-06, -1.21724534e-05,
          -2.56005342e-06, -8.99531187e-06, -1.26778532e-05,
          -7.66210997e-06, -1.14206787e-05, -1.42536483e-05,
          -7.94026073e-06, -1.26341683e-05, -1.74807974e-05,
          -1.26074228e-05, -1.34436023e-05, -1.66515256e-05,
          -5.24949201e-06, -8.89422972e-06, -1.24836097e-05,
          -2.46085938e-06, -7.58148599e-06, -9.90462559e-06,
          -3.86077591e-06, -6.44959164e-06, -1.11413692e-05,
          5.74836861e-07, -3.53332075e-06, -5.73787611e-06,
          -5.17629189e-07, -3.73625994e-06, -7.97572284e-06,
          -1.6670208e-06, -5.05806656e-06, -9.32593684e-06,
          -9.5451685e-07, -3.8939379e-06, -8.03282819e-06,
          -6.77502101e-07, -4.58882232e-06, -8.3729401e-06,
          1.42108331e-06, -2.67548353e-06, -7.31283035e-06,
          -7.57383032e-06, -1.18987882e-05, -1.41038227e-05,
          -5.01774866e-06, -6.82457221e-06, -1.04554665e-05,
          -9.04349963e-06, -1.0953735e-05, -1.2794595e-05,
          -6.21771778e-06, -5.97482676e-06, -7.71972464e-06,
          -7.49339279e-06, -7.51169637e-06, -8.5509655e-06,
          -1.00234377e-06, -6.6668008e-07, -7.2173043e-07,
          4.37327856e-07, 5.96235736e-07, 1.29070395e-06, 1.5908189e-06,
          -5.25327721e-07, 1.56625561e-07, 3.22307528e-06,
          3.30974194e-06, 3.7813179e-06, 1.87010767e-06, 2.6848063e-06,
          3.96897121e-06, 1.16181923e-06, 3.74882507e-06, 6.94024811e-06,
          5.27446036e-06, 6.39416703e-06, 1.13344304e-05, 7.53616587e-06,
          8.50022025e-06, 1.32189198e-05, 1.04224443e-06, 2.076182e-06,
          7.18856109e-06, -1.81246662e-07, 3.99092778e-06,
          1.06520629e-05, -4.95401309e-06, 1.31501361e-06,
          9.03780983e-06, -8.09681387e-06, -7.25452537e-07,
          1.0878266e-05, -7.98635392e-06, 3.80932363e-07, 1.20510367e-05,
          -7.56962618e-06, 1.05101628e-06, 1.61689168e-05,
          -1.53503406e-05, -4.3222999e-06, 1.06198468e-05,
          -1.67317194e-05, -6.88299951e-06, 9.957972e-06,
          -1.61539701e-05, -4.0238474e-06, 1.29581331e-05,
          -1.85007157e-05, -5.93778532e-06, 1.39663871e-05,
          -1.43244552e-05, -2.10684493e-06, 1.9178924e-05,
          -1.6891363e-05, -3.40484598e-06, 1.68953466e-05,
          -2.34850904e-05, -1.31309189e-05, 4.07552852e-06,
          -1.58396924e-05, -8.45042086e-06, 7.28282021e-06,
          -1.38335727e-05, -6.28242014e-06, 7.887832e-06,
          -2.01925104e-05, -9.77629225e-06, 5.45152761e-06,
          -1.25713204e-05, -6.27961026e-06, 6.18738659e-06,
          -7.36894708e-06, -8.76606407e-07, 1.20624745e-05,
          -3.43161992e-06, 5.28288126e-07, 1.38493115e-05,
          -3.32625223e-06, -2.1397309e-06, 2.86854174e-06,
          2.32190905e-06, 4.026434e-06, 9.63909588e-06, 1.45237636e-05,
          1.67119051e-05, 1.85399877e-05, -2.97756696e-06,
          -6.65922562e-06, -3.10436189e-06, 3.45105263e-06,
          2.13703584e-06, 3.94479503e-06, 1.74849029e-05, 1.44842688e-05,
          1.20862542e-05, 6.72011402e-06, 2.20253969e-06, 1.13525539e-06,
          1.22072042e-05, 7.62132004e-06, 4.63647712e-06,
          -3.37394908e-07, -3.6451429e-06, -4.70999612e-06,
          1.05404588e-05, 7.84788608e-06, 3.73475655e-06, 1.32612558e-06,
          -4.90158243e-07, -2.2248696e-06, 2.31325566e-06,
          -9.32024534e-07, -3.99617056e-06, 3.10847372e-06,
          -2.30707701e-06, -6.68575058e-06, 3.1740019e-06,
          -2.78302537e-06, -8.07904235e-06, 3.7353941e-06,
          -2.39962856e-06, -5.64723268e-06, -9.48745537e-07,
          -5.13035775e-06, -1.02197873e-05, 5.59129921e-06,
          -1.58076284e-06, -5.44618979e-06, -1.83083284e-06,
          -5.14433714e-06, -1.08692202e-05, -4.34505182e-06,
          -9.94243965e-06, -1.29292011e-05, -2.06252253e-06,
          -7.88804391e-06, -1.18503649e-05, -3.0013739e-06,
          -9.00162922e-06, -1.20962677e-05, -4.24881591e-06,
          -9.25315817e-06, -1.32391106e-05, -3.00402085e-08,
          -6.29246915e-06, -1.06669113e-05, 9.99372105e-07,
          -5.09101346e-06, -8.38027245e-06, -1.56814951e-06,
          -7.34600235e-06, -9.14488191e-06, -6.87070269e-06,
          -1.00665238e-05, -1.30691478e-05, 3.63402478e-07,
          -5.13934538e-06, -8.53861093e-06, -3.30229994e-07,
          -5.85982707e-06, -8.52129506e-06, -3.38414708e-07,
          -3.00507099e-06, -8.02016075e-06, 6.336669e-07,
          -4.33246669e-06, -7.80125447e-06, 1.24781775e-06,
          -1.95590951e-06, -6.22723883e-06, -6.31353623e-06,
          -9.52998835e-06, -1.3058404e-05, -7.32337821e-06,
          -1.05250392e-05, -1.34989668e-05, -3.30978492e-06,
          -5.31646219e-06, -9.35789376e-06, -6.96996267e-06,
          -9.52284972e-06, -1.07146225e-05, -2.77814161e-06,
          -3.30531361e-06, -3.83989436e-06, -1.02343147e-05,
          -1.03539014e-05, -1.17214122e-05, -3.46951401e-06,
          -3.18045386e-06, -4.21084042e-06, 5.14142414e-07,
          -1.18495097e-06, -5.71442058e-07, -3.49150832e-06,
          -3.12280372e-06, -1.8304147e-06, 4.93709422e-06,
          4.27733266e-06, 4.7166086e-06, 8.72211695e-06, 8.68597363e-06,
          1.00461984e-05, 3.84424175e-06, 4.60600586e-06, 8.46095099e-06,
          9.48118577e-06, 1.02436425e-05, 1.32297137e-05, 1.12311745e-05,
          1.25553552e-05, 1.5677686e-05, 3.03436423e-06, 7.50392155e-06,
          1.1266161e-05, 1.29776402e-06, 5.75186004e-06, 1.32944888e-05,
          -8.34734237e-06, -5.56346492e-07, 8.74634952e-06,
          -9.66214793e-06, -1.72826572e-06, 6.60221713e-06,
          -9.81425273e-06, -1.01036335e-06, 1.19894867e-05,
          -1.27573885e-05, -4.02938713e-06, 1.07077467e-05,
          -1.45001904e-05, -4.11953351e-06, 1.22852343e-05,
          -1.34621341e-05, -1.9007997e-06, 1.5279069e-05,
          -1.44955884e-05, -3.83444012e-06, 1.51630402e-05,
          -1.92790267e-05, -6.75705087e-06, 1.378261e-05,
          -1.82149906e-05, -4.14797614e-06, 1.72766795e-05,
          -1.78577102e-05, -4.83855183e-06, 1.79460258e-05,
          -1.89129241e-05, -9.13989243e-06, 8.20065361e-06,
          -1.57671002e-05, -8.17353794e-06, 6.06818185e-06,
          -2.08451202e-05, -1.01932728e-05, 6.51956498e-06,
          -1.11496347e-05, -2.61805394e-06, 1.28303218e-05,
          -1.22499223e-05, -6.69823703e-06, 7.03209525e-06,
          -1.03913635e-05, -4.18339869e-06, 8.66616301e-06,
          -1.1719254e-05, -5.53507698e-06, 7.51523748e-06,
          -7.00507735e-06, -4.26610586e-06, 1.26966518e-06,
          -3.13898136e-06, -1.42347949e-06, 3.21963716e-06,
          6.33059381e-06, 6.07098718e-06, 1.33376134e-05, 1.89995899e-06,
          1.62728043e-06, 3.88698436e-06, 6.33728132e-06, 3.72767954e-06,
          5.83863084e-06, 9.48679644e-06, 6.52794461e-06, 5.78231538e-06,
          4.84052543e-06, 4.79241817e-06, 4.38533743e-06, 4.78103175e-06,
          2.73953515e-06, 8.1516589e-07, 1.05043373e-05, 7.31643149e-06,
          5.64527318e-06, 1.38407549e-05, 9.45013835e-06, 7.22455889e-06,
          5.7248476e-06, 2.81745315e-06, 1.65847666e-06, -3.19184915e-06,
          -5.1477532e-06, -5.21148195e-06, 1.82472024e-06,
          -2.99301655e-06, -3.37745746e-06, 1.127621e-05, 7.75851913e-06,
          3.72644331e-06, 5.3770118e-06, -7.13152986e-07,
          -5.94387529e-06, -1.00791749e-06, -4.27035002e-06,
          -7.09834057e-06, 3.36787252e-06, -2.30518185e-06,
          -5.27782231e-06, -3.43718034e-06, -8.23585196e-06,
          -1.17274112e-05, -5.67873622e-06, -1.14741824e-05,
          -1.38092446e-05, -4.10608664e-06, -9.5846608e-06,
          -1.48841791e-05, -4.38922552e-06, -7.23378844e-06,
          -1.23246891e-05, -3.3543879e-06, -8.38096457e-06,
          -1.00093657e-05, -2.95642189e-06, -7.58962778e-06,
          -1.35682121e-05, 1.07171934e-06, -3.57045451e-06,
